function [Y,Xf,Af] = customNetworkFunction_RNN_35K(X,~,Ai)
%CUSTOMNETWORKFUNCTION_RNN_35K neural network simulation function.
%
% Generated by Neural Network Toolbox function genFunction, 26-May-2019 12:19:54.
% 
% [Y,Xf,Af] = customNetworkFunction_RNN_35K(X,~,Ai) takes these arguments:
% 
%   X = 1xTS cell, 1 inputs over TS timesteps
%   Each X{1,ts} = 13xQ matrix, input #1 at timestep ts.
% 
%   Xi = 1x0 cell 1, initial 0 input delay states.
%   Each Xi{1,ts} = 13xQ matrix, initial states for input #1.
% 
%   Ai = 2x6 cell 2, initial 0 layer delay states.
%   Each Ai{1,ts} = 25xQ matrix, initial states for layer #1.
%   Each Ai{2,ts} = 30xQ matrix, initial states for layer #2.
% 
% and returns:
%   Y = 1xTS cell of 1 outputs over TS timesteps.
%   Each Y{1,ts} = 30xQ matrix, output #1 at timestep ts.
% 
%   Xf = 1x0 cell 1, final 0 input delay states.
%   Each Xf{1,ts} = 13xQ matrix, final states for input #1.
% 
%   Af = 2x6 cell 2, final 6 layer delay states.
%   Each Af{1ts} = 25xQ matrix, final states for layer #1.
%   Each Af{2ts} = 30xQ matrix, final states for layer #2.
% 
% where Q is number of samples (or series) and TS is the number of timesteps.

%#ok<*RPMT0>

% ===== NEURAL NETWORK CONSTANTS =====

% Layer 1
b1 = [27.918774314461789032;14.435278774390361889;2.3718654730466037783;19.45427230494401627;16.797917871064466766;0.6604008839122924579;0.63501650097127892991;0.53981441631902904454;-0.65766477922706423342;-0.093180470960647021617;-3.9920324728723737273;2.6959330029248742555;-5.8931852845661412132;0.075637269736062884284;0.52692295171277470089;11.818479772658967875;0.93561744189765516655;-0.36920408578032970492;1.7932757476689784593;-14.612785876425093079;-14.648944558708368646;20.402928766703272601;10.223015893840985413;15.902949221975699601;1.3150799013006493343];
IW1_1 = [-1.1788693602373514491 -0.0027007158506776041129 -0.0011355076810721882394 0.0021813693220931467016 -0.014658541931776084 0.0025505065788845155371 0.021711261669435693439 0.033435978775996154366 0.0048257767190097704962 -0.010675552233679467748 -0.0076325568863546792986 0.010572225589729054851 -0.025503097366369572446;-1.3370961931732006089 0.16346648986404740955 -0.16095141485646283219 0.077731929659013362932 -0.057957443297827121453 -0.11827377799317910501 0.065101834138228217852 -0.064620042802432511864 0.3316243844728710144 0.14904870935780986652 -0.17028735633349359468 -0.031798564537647504291 0.2388086725779272057;-1.1532111761570615904 0.044893027466307723616 0.46441661083856705661 -0.31510010205463678812 0.19636607573566638996 0.011162631519635516156 0.14301640382036603927 0.035619895220206913844 -0.028173415664943142478 0.081151556736637125988 -0.038033685539344275206 -0.029932457569637343359 0.0042367040857851116439;-0.75794822776126535846 -0.0080956079274659507178 0.0075729506070308016605 0.0051071715439869862924 0.019995808133182677024 0.031652407466820506321 0.0039088994756777935627 -0.025495266362380107628 -0.02939999543534026899 -0.020863370039318471227 -0.055905470969745185705 0.025312812102720332746 -0.018521031995788327096;-1.0535072633986033441 -0.00083308315572038697631 -0.01089543029062102833 0.0071302555481686782576 0.02284410021341718583 0.015030212439781334005 -0.019510923027445364886 0.019899022468014070791 0.076963518349057263856 -0.031848211089678148122 -0.048703918457124954766 -0.039755792069224783758 0.0083494007576818234095;0.39019416403703793828 -0.030083488256152354778 -0.39117269796945886018 -0.037351321071304739718 -0.00044935235623748192657 -0.052133540109587150901 0.056998756756053668704 0.10859215638816983873 -0.067595291199248369596 -0.097149886120309419946 -0.05570215351999729253 0.089021866206534266963 0.034656870248708386562;0.2577938313310751961 -0.0384103329218332748 -0.4866039267468026952 -0.039862626794726088719 -0.039072293282645380319 0.0256579614772522481 -0.079237128843985663029 -0.017268934947654288048 0.0027577414001453853278 -0.068290953565468118236 -0.066593988098876524817 0.11070060679293514116 0.11394576303831562003;0.22674147920362910935 -0.12085138321760434399 -0.31222560815940664236 -0.089431599203640618767 -0.028307245825358734459 0.15078505666442493238 -0.071023544970886046124 0.0075193012065093130583 0.013014950081753811142 0.080891227453223996102 0.0085891072343503675757 -0.048850684806788439996 -0.028943113392757152669;-0.46195945577055391729 0.047481460628316422834 0.36890428046371742665 -0.11856271998803408207 0.07171647042872636435 0.007298009607713267996 0.02198581212655166886 0.048885493740773798554 -0.0039692122539017578656 -0.057357932128938970973 -0.013066120223823272928 -0.094289799798789986074 0.094465707740945439874;-0.67060991248784274088 0.19617413382815751532 0.44738729195270993122 0.010584138316374546232 0.12574110953088860065 -0.073310564369155464814 0.037711898069777614884 -0.015377570058690857857 -0.010349162555542634756 -0.042761936261044450336 0.038329151649776370403 0.054082692951686224536 -0.036399806924567741639;0.88919213680301667502 0.67031133159443434533 -1.2965012152097343812 0.19504249374391541272 -0.37834372228306389907 0.31777278975293632435 0.11148043007405507299 -0.178602237881247905 -0.074538705870665897257 -0.12684656087491982812 0.013786439691523115839 -0.026347901774214081694 0.036444974966966470209;-2.9172697494642969573 0.11756563586691402834 -0.16366812749957765361 0.034440096518670457182 -0.010665272580310011796 -0.022009451260495912356 -0.0076742438288350455985 0.012581337603914645451 -0.040736129166371509713 0.04107248855331602222 -0.073506365434773970891 0.0075241732996649858534 -0.0035343875867481977168;2.8922022746635898116 -0.19171398203636108581 0.18474871109156296156 -0.094902812430961810963 0.00051939793485556470624 0.034277595484810782778 0.053959934257982698769 -0.034257456347918907591 0.022067682720681075503 -0.054994315421951552036 0.088757446002284967612 -0.029490483698741236374 -0.0017535201492263718763;0.24454528657964874627 0.054392158246628068141 -0.51797657889231429884 -0.11074250014380591922 -0.088475134849707509632 -0.049869963522281388069 -0.077768018365659358215 -0.0059421053388169099013 -0.013765849180269974436 -0.035268146812715013561 0.010702510841863483587 -0.073855323900671898674 -0.03476226346859152827;-0.53004423331231553806 1.5194000875370776704 1.2216526375050507092 0.68408473347125564601 -0.56928521966118494912 -0.94769293078219152271 0.60206980857361880322 -0.30304222303468808519 0.38563514039170415648 -0.431901063547563413 -0.23466863926235337345 -0.2346279269989111349 -0.21968323928640567932;-1.7172550815177878292 0.04441912517623099188 -0.043231968311808560701 0.01558615111768670361 0.0064141571652054502062 -0.027550274064399346563 -0.013634553201654178375 -0.038318648661167457881 -0.078022269726425549918 0.048396755034861994871 -0.032741339391701679284 0.0016890647916755784953 -0.0079754019459444686069;-0.054862155910848350859 0.55354674425084826606 -0.53631384526764491749 -0.0062657322880069485707 -0.26824880508050846784 -0.87007467720256836952 0.09774640174040724605 0.25841488375217153139 -0.17170128529424649733 -0.0014937335821473601751 0.6015626074511212229 -0.35938815160467013632 0.11950821032128655652;-0.209122165547684008 -0.0012880438938988197656 0.55717992222399481683 0.060061526326480027538 0.08976515373027499356 0.02015126354605003417 0.0489888169163857079 -0.038774439543701272326 0.00086523901971285804239 0.11000879837364924141 -0.060356219551017824265 -0.074271472170911359556 -0.10675415014001927994;-2.5801102374218833901 0.16060318182578986468 -0.17468341840721668401 0.15670936304011623408 -0.00893228476775101074 -0.078226771511810400117 0.040549525579682409171 0.062852414131487135962 -0.12308688966135690468 0.049491333340874826829 -0.082660871973537997093 0.053472474668930625175 0.096163377146174400245;2.414290692498604507 0.016881371922192512508 -0.01603566791353772808 0.0025298556171551370153 0.00041756761916281193159 -0.023604884173108423018 0.033402649290541638893 -0.084740210722302047874 0.018661618587175288903 -0.0019216168095856412702 -0.032580329101328679708 -0.0021501143103663617959 -0.032297197137926204891;1.0114406856151247904 -0.021829613467404099247 0.01552430640133280193 -0.016066674887783422704 -0.010158551948021387126 -0.0085671480845939500248 -0.040637383138605057131 0.034634139246567142989 0.0093345749387688751325 0.0098212069993640176147 0.0063175381181405105419 0.016146719417063380708 -0.067990181608604496888;-1.1803127563067850048 0.026870969500797294016 -0.031034418002150059024 -0.023939539327199998997 -0.014542803802149438866 0.010411653037701537952 0.0045630321294154998699 -0.0073007154444016354386 -0.0638171227228954141 -0.01443171117210095139 0.018258102767560187296 -0.014166317424334278971 -0.040639424191428089039;-2.3072071459514855718 0.1218481190118847618 -0.13944562916935782093 0.051984564246000765364 -0.072199317131766638234 -0.031809167612390866486 0.085181445104299854942 -0.032872814270483968757 -0.00079061751697799369492 0.016483767575459367521 0.048493795937177126831 0.0027063991048364324614 0.023046750347824971478;-0.8043519424459431022 -0.012647614496540298193 0.0090106130673114955693 -0.0059505518802552576779 0.0039585161295696905115 -2.1251834992887838182e-05 -0.0081205722598941699336 -0.0023675685934985632453 0.023999747600714577134 -0.00055252021219241774595 0.023499685973282096602 -0.0080368693110408097324 0.012837906192985306178;0.61092068065207449923 -0.22761308772342689344 -0.29479096558870471201 0.2811727542220055498 0.010676840250869205559 0.17956327615030170941 -0.11759984706471705851 0.01592223530384935179 -0.01500770400251424247 0.049869936642329186494 -0.12505317825956863143 0.0553700684447947164 -0.1236618357252222411];
LW1_1 = [0.12551189481590716013 -0.098037957886985174771 -0.16953525330374857871 -0.088655567690308009765 -0.13447855001277159159 -0.18405559232621501731 0.026740936281507809991 0.11135735395915903612 -0.12959142584154920153 0.086328187641319387158 -0.042750599486984404429 0.084475554257404217307 0.12483179773502463272 -0.13391900356030256303 0.00047294722524640565777 0.077840993661262430914 -0.014077304066225499596 0.043524879477224838464 0.17722391888038535601 -0.052391330460371213218 -0.15742852668787921111 0.18486920775948492701 -0.18193779958552111498 -0.11274175195803610994 0.16584570457129860221 0.022940327458665241145 -0.053468749361918907481 0.1562761161580247804 -0.026363028356565738897 0.036885442244607068163 0.022820545055236840515 0.022941712401213721489 -0.13660812922972198624 -0.18481462397727946301 -0.17833611657221157265 0.008929166334254357365 -0.073512254652861791504 -0.10258115268703280054 0.10645703366813735746 -0.089968220405127946604 0.049728220637761243184 -0.16609805327814280984 -0.11899369552982855258 -0.18927583882984866381 -0.17773350377298219316 -0.035625794922174165713 -0.014369478347446567809 0.15291656896760283391 -0.074903058367664934747 -0.13440500470739974448 0.14192880708841432158 -0.094151045850935449755 -0.051191074904440449223 0.019523714795475335948 0.026553085073555790507 -0.051008770351791049569 -0.092245897912428237442 0.11610943458622342839 0.17947119555690357884 -0.058760856425547264292 0.068516796754945916148 -0.18692176584811820428 0.004049251572833329621 -0.0049458820963613975633 0.18147394555498497226 0.11438998356387979072 0.14956049196136955715 -0.1720877340942046918 -0.018834047713577588973 0.016486430931648934917 -0.092509163840903588238 -0.1237081760989040824 -0.099312649308936629122 -0.093107786080909360482 0.07491969996637969087 0.057018813415298803815 0.0054300724399405564044 0.16555119881903554435 0.098116399502814741207 -0.1512242691420383478 0.080384801100702493737 -0.04212707258295313173 -0.12764794219392366914 0.015898104579501096123 -0.020772174993998655107 0.020156760751717066327 -0.025237385679886085998 0.16736920355506917923 -0.18120403742108087686 -0.0083835265271516943436 0.064665244571148541852 -0.026880886060506779811 0.088562833540521343489 0.15253712248238038285 -0.0058149059378806173398 0.13562673953497977886 -0.11682326005171990435 -0.14201394356093599569 0.065939593022121933963 -0.15002672653210388787 -0.027557022993283674522 0.1136211080383086186 0.15124994412095665863 -0.063751095276481942187 -0.076795304526856580929 0.039898159788274260851 -0.15325079576526950964 0.011346120907983765769 0.043136098041263053193 -0.0014710037746989582195 0.020742061440354207097 -0.16766932365596826093 -0.18397271973950421464 -0.013666372827252032049 -0.14715600231550096666 0.058575006509637886354 0.162549862289007363 0.14963279688492234221 -0.15891648608902469997 -0.084049668198784163731 -0.17056546869404251576 -0.14565158214336595965 -0.036240275519015062444 -0.06037192837565216047 0.078715566223272970259 0.15975366043662858617 0.041507924197212942019 -0.11218949806434051764 -0.15669788759935859845 0.071630177500258684908 0.14367588080065130107 -0.085373757406341940768 0.15998954389313799207 0.13518560779373980929 -0.059915988112538821897 -0.058729685371813729333 0.025369870193908947154 0.1254778755925209377 0.0051188643752446746221 -0.16843272171617268418 0.11754239902691060449 -0.082404357972236677576 0.15801790902554563312 -0.037647543012383495598 0.008067815319549869954 0.16144339507460411798 0.17082311009387823875 -0.022582884029435847106 -0.16086865584509962845 0.0076540065153632404552;0.15958391075952657601 0.16622649768286312799 0.076787554875120456188 -0.16865920549439480935 -0.10183367454854258538 0.14907464229254199783 0.0066096842029093163043 -0.10970967314128163284 -0.11663636163914813115 0.075953239525290802692 0.056571946392567393214 -0.14427893990201690055 -0.071226662821380737345 0.014059696730131396314 0.15783386561449111452 -0.032109518742458209584 -0.014817537331606175227 0.11063154489983671735 -0.18538611343499827866 -0.046092859428123314491 -0.17064819566217498403 0.002480387855221520034 0.09421116173381742509 0.13162653348637529116 0.01978285844823999759 -0.04242886277573786058 0.052868245436724206621 0.1006673982787473498 -0.18248516840689332774 -0.013440241639848813163 -0.13456586184244856419 0.088283535944493146674 -0.064644216878796262327 0.031901068073396050828 -0.09436207785578491769 -0.029153830330960851108 -0.17435741429759099574 0.057062414066552845371 0.00017345843003373792677 -0.096225811926529986051 -0.043462786419855153897 -0.11075460551763870176 -0.11100860864035813624 -0.014594515981844087549 0.12175851399766542127 -0.16119121444914591423 0.1344210672175606136 0.14819394976866243074 0.0057541216566855055148 0.00046549930250361321949 0.09907031869256285872 -0.13918641950262311546 0.15359396445784348484 0.13506987704065684386 0.059538809214424198712 -0.077440010697575348275 0.15758608064801152282 0.013524312862678973535 -0.17259524798022082837 0.16452949466256072686 0.14763159555262081457 0.1663675817993309769 0.01764455948848518696 0.1186968854278300789 0.1810824292254747947 -0.12091738522899063424 0.10987271396429508508 -0.041647571264010675718 0.1606819618186695886 0.18205787448381846594 -0.11727645170955011689 -0.13617165681292731083 0.05534357459394830675 0.05190861446082796482 0.10467257432527919681 -0.11976226795222892629 -0.11432641740054499957 0.016985985993577382147 -0.030400486479758254826 0.11226513876425645022 -0.13082923975557586571 0.03640184481825684687 0.04343522773314346247 -0.1152729927298646595 -0.074299104637109827931 -0.072990589916509779345 -0.13810428967519777776 0.084243898905026037838 0.15113411543735977283 -0.13556356979461831047 -0.090131119641999907222 0.09909374670117424011 0.18052336415052536167 -0.014880224282663482085 -0.17016867558977619157 -0.16898170264809045382 -0.16725956357996973889 -0.090863502358838513229 -0.10906281506277065718 -0.087671854217424446953 0.12635163100542654013 -0.033305021506677245924 0.10581500879270129556 -0.097416697095648166482 0.17337616596408186864 0.15186722966798371637 0.096197142119588754938 0.039459342239248754169 0.10495934149407286362 0.12007654160663164267 0.11592782737382051339 0.10877765098695943435 0.1213558239639495745 -0.10462934338681741109 0.013975034000810441018 0.056476019924914896975 -0.13737461032629741386 0.1502299596282830052 0.089898602355990064883 -0.060187203120907611931 -0.13533835210436068186 0.11595614885800971383 0.058590600051382696334 -0.064128164799131248675 -0.040474013357205025632 -0.17249975655914212558 0.050437896883070668097 0.17636112958829061603 -0.04052912385751313018 -0.017397568249248825112 -0.12680958162423194846 -0.13144097756283201761 0.18624613577103005246 0.013548903896346369685 0.035261338025226844628 0.16032408282141277778 0.074679630058966203765 0.15104178249398053646 -0.13187395339552962503 0.15166823042517871278 0.046985708268129956766 0.043920554595971113276 -0.011004270373407919192 0.048172686669526183778 -0.0055885323181157674569 -0.092910883830720658594 -0.17947883121984645194 0.10168887626461667328 -0.13350309657914841144 -0.17276727694606605623;-0.14914397477565069505 -0.042913671614612590444 -0.081029976025894900893 0.14808227585044858587 -0.20417507787668326413 -0.11903775411802026973 0.18119439167912032573 -0.043244294862527274392 0.13575120849885968788 0.057046276863574600646 -0.15898566660795340755 0.033150511889688191736 0.0055730817966313734094 0.095272314593444290542 0.083378982236377630066 -0.14580754689130995261 -0.16088663444713841022 0.02826822922268184754 0.0021761915385455935998 -0.036722567704866336535 0.044775893749366933727 -0.064417535600154507414 -0.11513395932368208907 0.13845904723954538529 0.035897761004188878664 -0.11754966979681179262 -0.042587641141926854682 0.0025345240977426371394 -0.10117710076133387687 -0.15896620660413085524 0.070408899546372763489 -0.095320856664672132252 0.0066794931606461655296 0.050960848644519177175 -0.020568314232182156182 0.18455533099350682202 0.0045363742399972704564 0.11926568546028067097 -0.029609409543411763233 -0.09642623065902293511 0.1961159638117643822 0.094947983620243023295 -0.15603475424162618901 -0.19240143912802823434 -0.0016226302683109621126 -0.10937502356850990759 -0.045883740057808666823 -0.070005751190321680033 -0.15598958175419633254 -0.17924112049164800387 0.066984336276565858981 0.10770818785963069686 0.13604544737294865797 0.13414053668853376244 0.02183128669903376326 -0.00089512888079161187244 -0.10240781813077212692 0.15824032941392693341 -0.16432564089541987218 -0.17544487311171821919 -0.14421008144021005282 0.03884648677993195881 0.16898637567988245012 0.16228811190665762276 -0.02566656588082844026 0.081179805866059620567 -0.11204389845889081712 -0.10180679580412520246 0.1494120436703013366 -0.01660274627953953544 0.042350829562402415862 0.13715971533728857357 0.18777713937551598899 0.035721419721252679891 0.069742325365502677581 -0.10364446937963170403 0.15975910318858072001 -0.068544167525464438917 -0.030984363649834579385 -0.092578607812733110238 -0.15850573795543435041 0.13515450510836460318 -0.097587848138290328448 0.018494180378696774281 -0.093984604695912382644 -0.071196395564552983348 0.041186219085462563716 -0.14179745876171470642 -0.12584120926905287274 -0.13669841809893620854 -0.15828092730612297601 0.15349034709421272016 0.031976142812342366051 0.089432227831561600384 -0.10122163473433960779 0.033429768194112814694 0.14828086586112035339 -0.081367420351382502286 0.063489587636550173788 -0.13601188872565225796 -0.041715612931573047006 -0.018115384083744599797 0.10476666186335213682 0.054695460065968398711 0.11225326099447749395 -0.076976819212687272453 -0.02887166555808751145 -0.10684705786894393986 -0.023298451372194241976 -0.13764621026293447081 0.09712524210777681577 0.16255771309343344799 0.11083351523826710794 0.11127116663707919963 0.12743968114943107772 0.10163643443231169805 0.057411166711737737778 -0.18954890545877675634 0.062887076263476240912 0.16952950215931505973 0.1462126819151436663 -0.050998843122657656901 0.089998920164708479108 0.032172833610290128836 -0.11601722884144653747 0.13799791122000790167 0.20242640049396207202 0.12145772255466706635 -0.14375077116821677325 -0.11352646115668736659 0.058433801387972703067 -0.0082463108064191759788 0.15029666513291500829 0.10786805131532355151 0.17756655016030739591 -0.057591464265476774442 -0.075454558300831572892 -0.13029009242348260633 0.02929621420283113134 -0.15449974489665294075 -0.15352259254768710339 -0.10315690159157592243 0.054088358433529333535 -0.13149166933779157795 -0.020715700537538395826 -0.1972798894782630541 0.15396499597559179517 -0.013651540529320575421 0.022148041020730497436 -0.16140606690045505855;-0.053127697555585273737 0.047020534421406023906 0.15207914330708055539 -0.13884393624789362343 0.16848418850107235722 -0.024777741488120695601 -0.043954260116696820815 0.13473926763607513291 0.085501163083364015161 -0.11121017551196593631 -0.17316066433455293283 0.056818220409462882881 0.086611743720441641825 0.12023606894543956147 0.14935739457386379425 -0.087543009464886301085 -0.14919717068013710337 -0.088634790219333139949 -0.18023108570853599297 0.078242161067235763139 -0.039678645156892476675 0.002478478522407679286 0.04229918891792727037 -0.12004488597668994121 -0.080943796659582553654 -0.099256043013945263742 -0.19230361957744318557 0.098303903527973926502 0.0012351532367647966894 -0.17386950695266625844 -0.060066287668779819175 0.12309807814408695037 0.18598928557682808949 0.026233742134418366193 -0.18042262925290211695 -0.029658672435920050564 -0.065314077816929869136 -0.022235868308129638771 -0.14197173421194142495 -0.089656009152172005949 -0.044690119945835549142 0.1728646253167560598 -0.036846536365857114614 0.07241285938937852551 -0.045260226913558278261 0.10966949999238317925 -0.02174250378792921129 0.18578522777500711127 0.093663736106377015744 0.068824911750023615165 0.17478474482529535172 -0.038154554558032460765 -0.17702064409003279155 -0.090108016719585792842 0.092078908085971175601 -0.0760667915325198285 0.061308562029811330962 0.15407575447993249185 0.12045046543551640728 -0.088300507063570801702 -0.028617141672246652895 -0.075424832985465428692 -0.13504708128405842893 0.14403461518313959155 -0.17149072389056396748 0.10600923556300492767 0.19177606782835054933 -0.061703526330206197315 -0.10891416422624601579 0.17759411331198940442 0.089965472222081663278 0.0012874944472696635018 -0.1158298011124348631 0.091325516433882231171 0.063482369571784033613 0.013854740169925962995 0.05446303422178946918 -0.15976294664939411083 -0.15966888308361679161 -0.080613157528550555275 0.024910545006494144715 -0.14475240136567124605 -0.048519680434476367137 -0.17958870925073799896 0.036510169181503369928 0.080299431054437500621 0.039078929820817738527 0.12374101409404802965 0.094198252667457404996 -0.12513685812331351577 0.14416499919203021318 -0.026408546302958635366 0.075975387647379377665 0.050049038531892235671 -0.065862062746819036163 0.16070422345568000089 0.012112113106082029318 0.022717055713847734283 -0.071874959296919421758 -0.077984215721979208147 0.12731775707497072769 -0.037617186104641535394 0.040720357195668424599 -0.12316292088970628993 -0.18995564981797677384 0.18530948165078864331 0.01629492480792570086 0.082408269905515557641 -0.031417308308657729277 0.092841438293573316787 0.12428757208434748627 0.041470381292997127165 0.056192823499389900344 -0.07490534176372909414 -0.1726773422653828105 -0.041130176009422751704 -0.099646967288161594767 0.05275495651881782766 -0.073134645134882922402 -0.14294564698471409758 -0.13645207002574355482 0.16029429746552006919 -0.13579814882590096614 0.10834546899589055091 -0.034429870454544764247 0.11720810435271010463 -0.046465858654638800274 -0.028262395535808906843 -0.13635938228624783219 0.038390251471012035167 0.12386979081459188745 -0.085224668271892262128 0.050163939421309006184 0.11704620271996252212 -0.052080880089286019086 0.15350616305043299215 -0.11036416773360832599 0.088613983974615145867 -0.10212747181915893258 -0.11794220892317085203 -0.12987420242458846964 0.17242510157727392039 -0.091646411215589015931 -0.1348965094474786075 -0.17652844493771160939 -0.13300565871678890484 0.14415183080649648928 -0.023415754275244202859 -0.093178576511617733358 -0.12262837780346905192;0.17710434705913011277 -0.14710887718266493773 0.060311109875673334091 0.11971486730912819785 0.063246813212440106122 0.14698084935724339828 -0.050246199001098078296 0.030302732597611542475 0.18994967723432742979 0.18940374857039460332 0.1114094951105718545 -0.19755286206361261092 0.19250312414112683013 0.046100834349309227633 -0.19898679448578324158 0.11657335164869879474 0.19524982615453914669 0.18173229989239145232 -0.04904199925959054629 -0.15340821787011210686 -0.049603313558340182687 -0.039291568875456039933 -0.035049799506855473796 0.080626659467917999313 -0.1563035334110378094 0.19554235834681513162 0.11995114644453899744 0.011099323708394672264 0.023490815631391926549 -0.12318766082725986222 -0.047429643382113417793 -0.019808162068629363295 -0.1021453766471130814 -0.090653422123570193136 -0.031205421853456736386 -0.029337277453367654328 -0.19386943684703333846 -0.013177784087366783625 -0.079548353529507301318 -0.028873681819826784584 0.093460847836457791593 -0.15124134451590151573 0.0089392673845966053037 0.02393289810027806816 0.057784151971964257954 0.14104121951584577821 -0.047392002798320238821 0.055294267376888951715 -0.19774506043569048397 -0.13803810524885584687 0.11999210656782237361 -0.1946661333046575959 0.069552513868185755763 0.13295337101977930394 0.17236020436876453577 -0.017349367654740242145 -0.07719657209309509216 -0.02129442852953778928 -0.18291307028507053367 -0.020686862326409524715 0.10311972538922647979 -0.17079087221276267883 0.14762572535410753427 0.02422758654667110656 0.064220941081641974568 -0.017467019592731759803 -0.10277840933546220081 0.031018820779816540234 -0.14996424691744006386 0.08980303065828684761 0.070066356302173102288 -0.17073395315230308067 -0.1818266571764622086 0.04787203060964037582 0.11609145439053887572 -0.028065771577941711623 0.13731563517882006131 -0.0030049531641550318931 0.12489278657254521132 -0.11892163641717749811 0.095506400796627144434 0.097563863537584671892 -0.013010710759212311058 -0.098937744610502059706 -0.092693772842449090321 -0.11944505093995692879 0.098041919078894604334 0.036935431564877489741 -0.10047379639556115738 0.18771471360174959986 -0.10430038710755266951 0.19748931361340360535 0.016582270744898146286 -0.11043557894597182123 -0.0096981529122491076655 -0.15906191230909794143 -0.037391688155377925118 0.17036542206333687988 0.1222689369968199824 -0.014688231819782297111 -0.026000466395680540271 0.013466470311956591985 0.039864496832778248403 -0.14547888736338748794 0.14687071456352582266 -0.17088172717875704798 -0.028829001612708841928 0.15355021110310407284 0.039435965510464451866 0.049715798722233410512 -0.035481966248048717183 -0.17709889774063009016 0.16779106137284824363 0.17294563760705741751 -0.05876822207451783131 -0.12075158855735249053 -0.15031723249361300665 0.11043402142877949135 -0.027623520130616419088 0.14264303318241502994 -0.011551057140702172127 0.13648970055786999178 0.08994001600727931367 -0.15057952577071970213 0.18007242531421704945 -0.15838644705324139705 -0.043068709296196924785 -0.019746699227947948213 -0.17393306442506517584 -0.022525208444741508934 -0.028436372289245809286 0.030331243506370900859 -0.10688603148437214596 0.044191840834479731437 -0.019310273269699567561 -0.14804031843455262019 -0.0047378483351095956877 0.026298993584574013871 0.077093901391647984278 -0.021029147189801471185 0.022491129508498304557 -0.17624225146436200973 0.058902637328518685222 -0.05994642788625405283 -0.19431998598333749539 -0.046287743852157725577 -0.017737542268651509264 -0.14308197194933808261 -0.033528491603028641455 0.14841167561374105088;0.17315476700600615501 0.084792225463983475486 -0.035251023398665169706 -0.02745993638068044973 -0.1472028083957632183 0.085260598731007414264 -0.021057272098493052398 -0.17253803687684610146 0.032218739046062809528 -0.057336450638598657203 0.032152588560723484312 0.19196408040350029789 -0.047136225904720288615 -0.18770054707027453156 -0.039033941002925197361 0.04956525191916191786 -0.038960051608466050865 0.054612160620607842765 0.14881498277794952267 -0.036997567045356297144 0.0032328086818555444582 0.0075635916764112505126 -0.10720347383158471133 0.12707037387306560627 -0.0037925233071568979076 0.042470039014415719714 -0.11793898174512812416 -0.11514234202051820688 -0.012284475038190391383 -0.041085581539131284246 0.10718415307332210262 0.057015835189165052499 0.052830002855655040783 -0.0099413167546998811031 0.19116170112923525082 -0.13581494687768541629 0.13026103213949777326 0.12248717884496788944 -0.012217070411222394691 -0.040571518497483034793 0.16081947819456238191 -0.0013458954570060464515 0.0036000055470080567777 -0.11564661858669700312 -0.15405954144216024715 -0.093423250487919592966 0.044069623617518365044 0.073945812748143810444 0.0062258408316749258224 -0.099551153571336564729 0.097817535316606904483 0.1835612808761072634 -0.13755889721773284506 -0.10770902353109350347 -0.04533011236004357708 -0.113956198975982817 -0.14282496273678951804 0.0431548548938232579 -0.14403176307646303744 -0.04259076221203141055 -0.036012967054884853502 0.032628744715294158429 0.1079818877665166682 0.059584564561292296947 -0.10336090691777728712 0.17660912942013753946 -0.16592493190226340061 -0.17291663479017652105 0.12212857124512133122 -0.019352354387831147836 0.093534961074746389431 0.16122238726326723612 0.071834143003978390141 0.18604906806341167669 0.16256961423067164962 0.16967553483056910246 -0.0079003885162721269875 -0.060928803607939792386 -0.050113621068836496086 -0.14675556529116992599 -0.19323140742519834268 0.1045839434562588488 0.12705770578199357401 0.12561781619066927917 -0.051333162486056148344 0.017547622070716369092 0.06227560369802997986 0.11889896689256583551 -0.17871179790708829893 0.18671267095102178635 -0.031288386719943120373 -0.15480917516936754108 -0.16050696998442628982 0.17603874759081766799 0.18453243037243652336 -0.13780353643642287431 0.0021494974963144801786 -0.050458853765489503074 0.060174137606124632194 0.055115961801041335466 0.12823442494984835238 0.038506353045122072853 -0.18219901002007388158 0.1664668695756520711 0.12862069949910065469 -0.067814632260420754095 -0.14876472251293801352 0.18427731847701292467 0.017538115822597597632 0.16480937505430204304 0.14458090265681441955 -0.13215134339093195792 -0.18005767254933333077 0.06588541542688229613 -0.031815665616139715555 0.18414900794029559483 -0.15495437914002704871 -0.092923335604737089533 -0.17602348550577609498 -0.049626721956214446541 0.041812622610095016851 0.042267455744876607227 0.11195506855926291856 0.050008965762009943701 0.12767763474443480365 -0.03975057682085084837 -0.15578512508117003943 0.067497092960487989344 0.10438781770399495341 -0.19405438780486392036 -0.011237756159398419598 -0.083970204392446443076 0.0020030990622381074015 -0.032633658410151637763 0.028610915046689330138 -0.10808756118399200086 -0.18176454494151286778 0.065530509103085887723 0.12571088641992594903 -0.012451401444630732368 0.026366362558392801574 -0.18159201183356193932 0.17443667404120957731 0.16019619467445586625 0.11675266129186055719 -0.15758587243522589882 -0.026200080689699596637 -0.076869019939540927933 -0.08510778408392681571 0.06509730115161894981;0.036526430987701863362 0.088666209693948949688 -0.05733459080667657054 -0.1234665164542210064 0.0013302058656333209854 -0.13658423386403914512 -0.18412933270633682903 -0.0066525135828622815326 -0.09356436870379160331 0.15496835643918777103 0.035946194802255262979 -0.060512914886176029372 -0.059395591596766210418 0.074155982475379370045 -0.18664531214312715668 0.10897806063103843144 -0.080846869613867694548 0.091520237585006020131 -0.027489265945009413311 0.18167644036048558043 0.0061000806588242875717 0.10581059233938069908 -0.14637353859045168503 0.020469937325723226718 -0.17552546491683584939 0.043988939448688646472 0.051078732453222086551 0.059544330789621575939 -0.18379591917512067001 0.073439422923653935316 0.085429711665713572999 -0.089896062047398750394 0.1428447105890055524 0.15719544725829853737 -0.12536615779976531537 -0.19628138048848883801 0.19496783346291363115 -0.17519584789405281966 0.16564085409791279302 0.12192217709314513707 -0.12893668987143375171 0.18947463164951991454 -0.09611914636058774275 0.058662461547401657802 -0.047321786022838381591 0.066917610019887024952 0.17774388277321997998 0.1089983316920099532 -0.066583530243028557494 0.027299940211981066351 -0.081566424993253089371 0.080707210634971895957 -0.04291987888075591423 0.11263051201378279642 0.058645739251376866052 -0.13402544487416376273 -0.06571333461235441542 0.16951042632482496431 -0.13059660701225778157 -0.15107691262397665577 0.12630327465434562639 -0.087538286234706996769 0.0930520310194487138 0.045141186844050246174 -0.076704543474615485832 0.14285218403782540264 0.19254523659556460613 0.1358228893249589786 0.11727268016092515235 0.18633231513910242239 -0.17661535119735238819 -0.17917373570392611248 0.12519143521397543828 0.19728314328301374547 0.055393045702295459765 -0.1085656282360892011 -0.023687362245727143495 0.13310754372473862506 0.075267441934517578805 -0.02683284343666124741 -0.02992225399406916661 0.089601144286435091546 -0.066826223349328875423 -0.11028290083171075897 0.19005632323417193108 -0.010986582697815841514 0.061564760741916815801 -0.028839364533279239489 -0.089497701052901806884 0.04430013324077409359 0.075940610980724007617 0.15710773467614672083 -0.1557758623490572425 0.018761708107931727996 -0.015226989105110692521 0.066857387482552946278 -0.037241863254253521065 0.0091977891231304290814 -0.022434334616277362695 0.052555020644824597398 -0.040166625556433036004 -0.0024138064871217328189 -0.13912128780673788109 -0.12941458361141111588 0.053706614882277910195 -0.099008754871658818941 -0.17484567310239321203 0.076664466992771157505 0.14542407857337957822 0.17188904685867703592 0.089873305624565955063 -0.099956333210784453769 -0.05380529089557669481 -0.011998280353796405423 0.00093407437867715410219 -0.12498811150003064085 -0.029947929687014838984 -0.18167188911741011248 0.01572768204206143744 -0.01563749908267249647 0.0034210398068396700132 -0.061495004808265966989 -0.16954822327625873601 -0.11628548758179202416 0.035125055307593106013 0.00045142636095856815415 0.14797008919546961181 0.098570559893139161889 0.057373719178354432024 -0.12640397992505755798 -0.092029651990749847257 0.033889899978092712096 0.071178741906561385222 -0.12188394299557103739 -0.2004149016035128017 -0.16057092846933954111 0.0071213556400968550802 -0.17236391125155034465 -0.050959319039854282518 -0.053107853380368892637 -0.074891623263204379346 0.16351148298592901864 0.19991655936217986311 -0.13665047511159372773 0.13199524193899248026 0.041859886194094961254 0.055769880414490560772 -0.069480039460848699862 -0.15506716565917927353 -0.13736994830692922376;0.098781764550784911805 -0.072590276874363549031 0.04827941945275448371 -0.10772761312499914976 0.033863017490940658383 0.18909812055745556236 0.13021939402240950701 -0.12524960639424792541 0.16005208731795306232 -0.11781010446104316081 -0.064700362418432910694 0.09476335201948464515 -0.068202003097183203084 0.077969541040323012138 0.15972406627200574913 0.056442191570145877622 0.14906760000321064852 0.067879064474777012217 -0.093795634655860951612 -0.13432522937923555006 0.12545593859423914695 -0.13957884870193656979 -0.020503087658149853761 -0.098208331294446532533 0.10948951530640083085 -0.052100930890587163202 -0.013546331965053063501 -0.049189219789952956519 0.14424108131448709624 -0.10631926557242897535 0.053168335589762569238 0.13797913458312804913 -0.11723263477103067209 0.17556345221934008261 -0.098013443054268484245 0.014628328265779973888 0.087848650810001593925 0.17670060775104270978 -0.035913640302131843995 0.02011394073256303483 -0.04510430906631130582 -0.1534677302548073663 0.04473281328555284847 0.19759557446616260457 0.047576228811661562534 0.14859352223151545136 -0.14996245900603563661 -0.1402281761199711263 -0.10680437143067417205 -0.19562894422580937026 -0.076440355278227109515 -0.071619007189865593888 -0.10440976593024951791 0.060160507916974900744 -0.029613853746422939828 -0.16744898768583696413 -0.091720208760046897933 -0.045559861780171871659 -0.19563508872571103159 0.1631299318347614602 0.15100214925939586808 -0.02106108010355841817 0.076666304701130921773 -0.12809648103179399614 -0.021905510442969695212 -0.15842517367124370198 0.036056818633240034222 0.048240742487261477345 -0.0021523954358044659549 0.1131502237083645418 0.19395468824714848233 -0.013897865803050898914 0.17819662618327608561 -0.16169883976248697333 0.08220262534063356441 0.19712534652885621567 0.1173627513615974477 0.064506521050281942498 0.086531100579737396661 -0.16142358690249877795 0.14287938153644899608 -0.0050311874998759638714 -0.093921497802016751244 0.13965834202734808689 -0.037689674612027532219 -0.093502423097307538202 0.16602561479954000556 -0.16372562149842320722 -0.082106302452698051719 -0.091994923239993850461 0.061646842973053866954 -0.0099742647970898976051 -0.12273424507897227886 0.14339044918806226336 -0.077492563972625258528 0.098641842812122446094 -0.08037356630606661001 0.1057790192948314667 -0.0097701112911359640212 -0.19552787541341237754 0.070571800365118411702 0.19971994374889059931 -0.0079610159738213830127 -0.075993187966028927227 -0.044984945946430994479 0.15627381466087117423 -0.08843993046435191796 0.075353829261840477027 -0.053536224816679647831 0.058452211413094853909 0.19746608621062916589 0.0063407800221099404683 -0.052584676683601651315 -0.099393421516804206228 0.17898386693715823137 -0.080141610087647932592 -0.0039012059377471464648 -0.074100752356138610555 -0.051685754859406615735 0.076316544406473924012 0.049820207485046313911 -0.15745117529940824697 0.12509254953764992191 -0.17947998559302161259 0.10657809685683160283 0.098646917404063325097 -0.059952909429181036605 -0.1503974050546944552 -0.067598643394520055439 -0.049109092123946575248 -0.086521724116457296438 0.018177351644944508835 -0.16639610384567304902 0.16887632239005914703 -0.12623946271437944122 0.15435480743001905868 0.14213998765711166605 0.15004001295688443318 -0.17158798309612133259 -0.040470933348257839834 -0.098490712066940752645 0.18446602515036836234 -0.072778876235283992968 -0.078904417840110457893 0.10036956781911951508 0.085650785742528573463 0.16851118162489969743 -0.11686553776904116952 0.082325605349206298911 -0.06884366460781028707;0.024517767616332349079 0.1742774996104356211 0.12128462795318468992 -0.075428291670206995545 -0.11222636906555692737 -0.19025553274902701206 -0.091194083611050816285 0.1002902897903169277 0.09182217049259819297 0.011754187513473611862 -0.12431945087037861442 0.14532907787474966255 -0.20587451404627082896 -0.038337666821599919453 -0.17358874355769995934 -0.040470884030925267927 0.18142980082818452314 -0.038292945848847056989 0.17175596117078503755 0.13553819408272368974 -0.15243224697295015835 -0.15067075980036465088 0.15402953230615987201 -0.025430001442759260499 0.013156665187136864711 -0.0041346528792900868673 -0.0010606120372082139969 0.038814554378618734698 -0.082888942990059305549 0.11196717401967716532 -0.10274665406307513515 0.15886727416378965128 -0.039451914890454818641 0.009499893839649102556 0.17247811005611776713 -0.19729242629536039577 0.077808750953303126852 0.18516569984588132636 -0.11099476659089757558 -0.19982300247024409323 -0.063641497212975892128 0.0084507409886084849937 -0.14288620672029159198 0.085306267030710952737 -0.083557202648361750263 -0.041745483137696479115 -0.032450678395485814398 -0.11836919633970265087 -0.037330765408247951198 0.047881937332638707661 -0.11580418330283068218 -0.10340314265243999436 -0.14963993195261282576 -0.068336523577283217468 0.059375356602066962919 -0.0025979854817385558685 -0.07001694265720290189 -0.029356467864591458128 -0.026604319618222585508 -0.11249484637226363215 -0.1153236407361445115 -0.12248088612843929801 -0.039089461413434313519 0.019302837290325312175 -0.035018265635498986577 -0.10901450082251561147 0.02141241886106554429 0.065168231662250983294 -0.09695136611103045976 0.16664455175863199243 -0.11015999678655273575 0.032516163044259950576 -0.17459145327554143057 0.18741343161078297119 -0.11445578816303340897 -0.19167247771586151672 0.067286557983381761749 -0.12116992973436530034 -0.019024105288461684582 -0.07622338054238102234 -0.090276195825325450395 -0.09234393281966793432 0.16137629139631196051 0.070434170543664534336 0.14913485900604239731 -0.14613399117176623099 -0.1517052254001917122 0.0010766096875301366283 -0.17767863748037202032 0.006275677734229061569 -0.0026290805849346096483 -0.13698195749791358677 -0.060414543539584773801 -0.16922287230052068807 0.018425112165494497013 0.031586889529846395863 0.095473727167983302166 -0.10172688816593490613 0.10612553250572775987 -0.11264312045779663329 -0.024060503256785503029 0.099370889008713186863 0.11625552433385677453 0.18283005689720555065 0.042346838487600867162 0.2008814260758917114 0.15661260032314291979 -0.030841965899721147243 -0.13139478616358754581 0.19342782263851879265 0.062350721233154396406 0.097265329627379909505 0.052900304396448730171 -0.048303895020623641154 -0.081555064179649930378 -0.11770285403699197457 -0.18871540314283333228 0.12573332761374872435 0.080280600187129014245 -0.12672934647141895215 0.081313207776164589391 -0.158071148571778064 -0.16865205219730203257 -0.18559554979969433708 -0.081617263106224330338 -0.078673603118498136588 -0.0077515666923937678531 -0.11715583010056830615 -0.019077007341459017303 -0.051992147215507135416 -0.013345533003313538381 -0.20466787616134304861 0.13489007579348846755 0.12627439649989322112 0.045119809451569813097 -0.14086100035864612678 0.0033611901020139021111 -0.048348789593489392702 0.17581311571943347705 0.032001606729287694619 0.17166164770524597327 -0.029381658943312627397 -0.13821705798472500026 -0.091538701958227081112 -0.10434120142965640221 -0.13709324584302004513 -0.075506496035823156276 -0.051651587354658093365 0.02423530999870977809 0.054234006517503645373;-0.099794470122037862159 0.18448753499548642409 0.15349576509843668171 0.083821431001830870589 -0.073242942453016837701 -0.018900685647855873517 -0.034256856114251388323 0.057734940052601317617 -0.011052709886896121619 -0.031087211473443537857 0.0899276093231362178 -0.13808321908927961852 -0.060872997886166083092 0.1362939439502278971 0.071648810966027778879 -0.10038917054763525638 0.18934418856731199954 -0.15025861836319256981 -0.1754106079688208808 0.17056462561239305042 -0.0953370665441476417 0.11875462061663287494 -0.12057724581252626805 0.14095094708634323122 0.11185992149302986798 0.024931145075301839459 0.090340281495925073285 0.042003532292628417699 -0.046751224817500061648 0.061678213258622362203 0.081340152451602754091 -0.16669389056625796841 -0.13446205159986607258 -0.032677886497958212597 0.17015420539705553016 0.17576020188660332333 -0.18256786731940891078 -0.057193106245445192448 0.032966597843382509925 0.12212013633256364742 -0.14955759645631491739 -0.064710163529781206115 -0.10198164908764252579 -0.020026660220963912046 0.072224388143766721226 -0.19326795963941140188 0.063504969306520650529 -0.010179315077484905189 -0.14026187502499207205 -0.11220954568769482551 -0.12577226525767229437 0.042552313221051470127 0.17680659549157176635 0.024908157525912688612 0.095112395405541408366 0.042032973959193205282 0.14131001161108536213 -0.16166105457330842698 0.16593387171734141905 0.07079948615191558603 0.087738809253428418078 0.036948844692541567281 -0.12361388804552654597 0.15824409625095098297 0.0017084691498553184787 -0.079535385012862599985 0.037347752357275020019 0.071915208262158622499 -0.10553462188010553913 -0.079329963986889753813 0.021572878477282338844 0.026423510145402229199 -0.18198904176417945999 0.16119149202390276043 0.11912126783980921119 -0.049540080820173956755 -0.072166155474656101809 0.16630496395278226984 -0.078972993406813754569 0.042240096473967099489 -0.083395271023648034903 0.11895978270432550072 0.024865805467083036684 0.18479465255971819215 -0.062784548687903118935 0.027092925306968169974 0.0019657553445584859293 -0.026206700755072045994 0.10434471517475746305 -0.09405839711220226329 -0.1801043789838090714 -0.15571973601982949664 0.075485124703265127355 -0.0034392234014315203362 0.18690218424912377615 -0.042528554684809573294 0.098522027334000589205 -0.071258974002660305236 -0.16636279896709810222 -0.028552455835789507937 0.15609862878558558585 0.19519063000158617949 0.17259333316671043868 0.081911658141523388532 0.024347458996020691913 -0.14855272559656210185 0.076673528250515474158 0.11956734381622027841 0.17385642947821786097 -0.045237897247475927776 0.014932476855279701311 0.14430970139845589184 0.19785911255075841475 0.18047925247819340822 0.082060230098907907537 0.025658389718530637963 0.022411812471409275904 -0.16662867533185973801 0.069802111889694581914 -0.033197572895597972364 -0.12870514539860161696 -0.18447575039081562376 0.077491825500532421356 -0.023179242294012046555 -0.14902971404916887099 -0.038896648293731128643 -0.18933923298843705063 -0.087276404379359837082 -0.1950731307475073173 -0.02884473776513627602 0.031815502223656130787 -0.060218494189644193593 0.19209350576297856694 -0.076109366195403274635 -0.059169289774643231417 -0.16969171876679872701 -0.095607264766639152298 0.03992709223385523809 -0.090140683837722293537 -0.18566282812428178128 -0.18648415185984215658 0.097552241054107174945 -0.13824292797848983239 0.029817454923467590772 -0.052604110004754373042 -0.11197437428735219911 -0.021912983012103946778 -0.035038341512022980195 -0.12739343905003747137 -0.11555802635353921992;-0.13376536642703557023 0.050855427828723570594 0.18168632517146149352 0.021050643542322639012 0.10164867088852333477 0.033667763209395164259 0.077444060172009998588 -0.016914463801523945546 -0.15861743037728312511 0.1380992151768918319 0.13110530289302108065 0.10533051151007648272 -0.015164122694518489959 -0.0095641952419060448365 0.071417140946311796768 -0.11684145185594757566 -0.023694719675691727767 0.14797203176191897622 0.011694150410128252918 -0.063200742252344233041 0.14213999913259403596 -0.094116246594735886166 -0.059317383919106687895 0.059692104622945878212 0.17663445824926696237 -0.10725612109533920469 0.032763057641095445771 0.00085770613488092540232 -0.047025832073760473473 0.11370109536830100283 0.041907490922286592949 -0.084806554136682907319 0.055547694382594832441 0.14106061785061838054 -0.18286946073077769981 0.16715441956443533034 0.051470402971536349801 -0.078681122155748933755 -0.17090725599762365827 0.18416845210309629177 -0.048129279036209483833 -0.17884560312009317729 -0.16696146085321716956 -0.18687022512087056447 0.052758865924927553226 0.097611758782926466571 0.11246573972125055441 -0.042692604134768177837 -0.11114666172068510264 0.14741547401801205486 -0.13715577949540055935 -0.019434816510711543092 0.021310037574766682589 -0.19191647758384580702 0.057612529331729223081 -0.035319605406306096851 -0.0071589513345923167301 -0.1007796087356278153 -0.10493522498924502673 0.025745251206095391 -0.022177675959924023075 0.0062628555719195597856 0.10782786400337798782 0.19175331136691792233 0.11274253547665885611 0.068679859245238727983 0.1247345248676874907 0.044130165079691974217 -0.080879931819924380521 -0.15004536887071659446 0.18880666429199446932 0.15702456336910303181 -0.048199619517976931282 -0.19384184026572540138 0.038542870097687163822 -0.18027663750103267715 -0.013039586173457408738 0.1297195365162288061 0.12521633636036441639 -0.11825353369925402369 -0.0012708960283228643278 -0.14706455153020878135 0.089664386070779089621 0.059964322926085340815 -0.033611133570214002386 0.020823776225464780965 0.10542388588502145386 -0.078362287815143899516 -0.014783753923564756094 -0.15461507333775503792 0.10608495518791795365 -0.13585332223503854276 0.17329497710247279696 -0.032775005855048493231 0.07936706490282728621 0.11995235661446632114 0.13095608505211858708 -0.027885501373451856283 -0.1218893447496931931 -0.14638942530475682058 0.0049329948028140136254 0.17922035901882713005 0.17497328249942747935 0.051754624990829986575 -0.11810411792281957921 0.10358149792317244975 0.09209293824058077671 0.1900191992322912693 -0.023496974748626227314 -0.18654803721772569847 -0.0016055026012034710921 -0.09467240220302117204 0.047239519817555870873 -0.15443089176559882114 -0.068182908963183200268 -0.15795175056133620162 0.13615137673903718318 0.035545848547098059245 -0.18483809956208110958 0.066295375494409961026 -0.1936146045953871242 0.021188529014509169257 0.097477230946291182345 -0.0040134033384121373111 0.086349681795287208663 0.14679292163513427139 0.064886668441273359642 0.040329305546877781963 -0.053742719620621208498 0.064581052428441532154 -0.18389497605282384418 0.074366961777558499014 -0.1693212351052795217 -0.0087769069513848069902 0.034991436080285542864 0.11018079680150728861 0.14200010438878812868 0.13162930671493894286 0.10119048699608164388 -0.076240408922015209803 -0.15652371877870754902 -0.021423509896428209742 -0.082612273978642195016 -0.054590562060642222608 -0.071452939548713109708 0.17464582923114371771 0.13921033353168063562 -0.15365723725360666552 0.17860263464302258973 0.032966606648512954136;-0.16138448728616966443 0.018698031208349150806 0.14135048176655751195 0.03037755090796717336 0.063650902368980147306 -0.13885012820627373742 0.15353586946127531498 0.0038927240623182752903 -0.015149834090845399823 0.16274582008684418399 -0.15406454569674746247 -0.16987676213674116066 -0.086072185665614447947 0.12539145753627647939 0.041165415151355820578 0.17529851825018910594 -0.0032835129248636454533 0.091739516584901370511 0.063594590664827047033 0.011003813657382916641 0.036039698287238408625 0.13708251047916195087 -0.018210932006870753086 -0.12172918085052740478 0.029992079535495940606 -0.1273153543883372707 -0.15151494065369719433 -0.18296668161796530994 -0.10614810565084037419 0.035765037930575838132 -0.08894366981963794383 0.0085992771138203253495 0.061007034995380314546 -0.095031097369069478242 -0.10776360599880661917 -0.086883652739248112828 -0.16839916833040202704 -0.17224107453692930059 0.14334353435472982352 -0.16025760835565552864 -0.060241924008118223621 0.13025525093875769955 -0.017782663846997958518 0.17703033138940094116 0.035883820032655180943 -0.12893738703352264352 -0.063004853614835223952 -0.16417119733615917476 -0.092390833443605241415 0.15079961189356488882 0.12999595000785921228 0.1194978448566424295 -0.13848096325476424995 0.15596890700112825412 -0.080341521230791565489 -0.064903328870077658941 0.1680712604266531851 0.14852639514583232394 -0.08193703351269532309 0.12560056286984735974 -0.10243104626493741705 0.083877774454615250388 0.15286886804439323018 0.042763670192320024643 0.18007869984609617409 0.030581572461821492082 0.034209756856062242814 0.14750918571619403563 -0.11862933826858605701 -0.036769498674437822716 -0.081633575528779547814 -0.051239417583036989123 -0.12805190248913023154 0.10445386363052537593 0.15241380456464811988 -0.063826177760017227536 -0.17624045397144463831 -0.041748194200090626982 0.16801080103494603346 0.1009455098728746919 0.021252024137545264676 0.017676716022876130113 -0.07066173803505620965 0.078529885062531112894 0.17972289768219060213 0.059436187664753101223 0.074200571055122552244 0.13881500188801654261 0.1725819517772178846 -0.051957391793599025376 -0.14832429529741714136 -0.18253145013752672399 -0.17084410229935839687 -0.16162136063290383214 0.16596404732352185163 -0.056092400978684689439 0.052270963765117986477 0.13984826292867733044 0.025885714578642068928 0.0058556366187356200317 0.070826231198784270204 0.049586128153196774859 -0.053338086458514365196 0.12768280058830891455 0.040374686254481650938 0.043280477076039873541 0.069720812489978759019 -0.11754541718292316199 -0.17704488510094823495 -0.15542398232429974203 0.17059160322938829446 -0.032697622145688616524 0.1257894927624635395 0.13560513826876488541 -0.078045190061445959828 0.1542714836004115686 0.12749569801227361721 0.056713767862497301009 -0.050036343957962123308 -0.12868342086086520526 0.15359113473540020323 -0.12251428435311383092 0.042434830932949967053 0.18295038192779236597 0.06558750636530948086 0.12225630621809166487 -0.068967750943960667853 0.043448810342720890765 -0.087298537222414429593 -0.01367908371369935816 -0.073771185758356963569 -0.038816153216252903546 -0.1745951120566944792 0.13711175210263829016 0.1177174243284234284 -0.075284136667877435412 -0.06017858100851534997 -0.053657813845926674579 -0.11017561041972168123 0.14923747233302309123 -0.13578652185959907972 0.09150499520515839591 -0.0034235509887179209343 -0.14957701557276861792 0.104702504719155709 0.064575656921607507699 0.014977575473612444318 0.090193361655823228729 -0.088704416135197056148 0.18431300250221863135;-0.083084108360066452614 -0.16282136582748965581 -0.01936338908620195351 -0.17289444855947624924 0.13584561921901927573 0.015296382195908482873 0.14772874696140106399 -0.07556711397006134201 0.11821309884927534706 -0.034078965670093885887 -0.10796717034327879547 -0.16252768207041115578 0.0088875103525883174249 0.040538988559794847388 -0.0051444221297616520017 -0.061929845322428206389 -0.058604535820261614842 -0.18420744324289578531 0.11990375049307974709 0.15436806089966284561 -0.12461535537122352124 -0.0063656562522087754841 0.034277429227207160956 -0.11022898398002035913 0.17941746726585125482 -0.033568753281118912657 0.078766913187339013258 -0.11426770511421298349 -0.13080724151601841321 -0.033972007473259499544 0.067243697744703886943 0.17776542310389767398 0.034024908373576578935 0.101710005008083193 0.13402918249138570661 0.032076456501657864273 -0.16467913535677744519 0.0028908532433996841741 0.0095817215347863676084 0.0064799303068575559231 0.090123499416950150764 -0.15550527802266397859 -0.12404399814473315855 -0.15968690891730005776 0.066233045900081347068 0.1239827635203029077 -0.096273292803093379888 0.083972645190782554958 -0.14311197639761177869 0.18753702382652845393 -0.0072302614168304416703 -0.051261968489370417223 -0.083179885626450317249 -0.0019905767149711000967 -0.11722408489213592686 -0.084444640524974870499 -0.1408745124135523108 -0.061980227882947214191 -0.14537767665676856743 0.063109758758996006844 0.077297525488909432645 -0.12768183102168481624 -0.16231249908255518388 -0.083652030711978658806 -0.1301778048044501257 0.17680050092755905666 -0.17743810879175664352 0.099597322024679746377 -0.070919308982970483135 0.0098208402285783168162 -0.0079627481820661628886 -0.14892586677846664234 -0.016079314530346951184 0.13949398822266181885 -0.030964172188833273547 -0.16536285678259682319 -0.089510753973662995908 -0.06966951306215295181 -0.11150228644376709852 0.16827470737311109317 -0.16288633085583603677 -0.18189318527482978283 0.12879744701907186455 -0.0042587075088570984158 -0.052183324104306275104 0.13327513472762825275 -0.14028845092189035082 -0.059421896718918065794 0.09739814011183210718 0.02543768527840046742 -0.035588004182468484238 -0.11354399399594131137 -0.1652492544727202084 0.16950770303179751863 0.1067592683874998144 0.012294070296392312427 -0.12086471713227839309 0.14261796003755167206 0.15602811910107061699 -0.013284838164627490661 -0.054561500454757813627 0.13326413777791493165 -0.17262229326619163428 -0.091634826592690288294 -0.10017450176869846512 -0.085046431564026317429 0.14739229536567699519 0.042158503977363981363 -0.092415356006806489986 0.17288587503103647336 0.03903510908078756253 -0.011855137485546519624 0.1030225618761063805 -0.10112283378047437488 -0.1771168007360686969 -0.070335932311951454565 -0.15050375249624006746 0.049258736976153752463 0.0095422111628690343271 0.15568134674265673989 0.13622991836172720914 -0.010143895514075140091 -0.18167855631464072119 0.18515425302859656043 0.16045695651585589747 -0.026170079184091855212 0.18740711302849100139 -0.11781794007087909026 0.13650719048800113997 0.064440534642033392432 -0.07212639013788704756 0.048024270866255026891 -0.012059761316937939873 -0.11365633296664090501 0.023803936559359681335 -0.080427640516804052573 0.14330053389906535766 -0.18336601287556214546 -0.0091738862819899097412 0.14255651607793684565 0.11051848207701991944 -0.14860712322259411744 0.053439093609117714612 0.18826536600710042091 0.076632129144534474885 0.020041002649120967516 0.18585494043777389672 -0.069068028972117209707 -0.13714722830459433189 0.020783109884566056819;0.034420207622616147414 -0.035697263530888083405 -0.12579750286586430241 0.066928201107331108943 0.039425404270973789245 -0.17471796525358199159 0.088368772132903866678 0.041066252462608907048 0.17574480374224205059 -0.053744970852792728344 -0.016008244583997494059 -0.078489451149426694987 0.16941914332070620586 0.086528383203843428628 0.011541280990092009362 0.011173964614980727572 -0.060303231470286405846 0.010169536448486367688 -0.0062258895611195571446 0.014041470088808233677 -0.017480466998470597928 0.036026631354242659444 -0.12294535621425527194 -0.070496479382818846848 -0.151312632169453537 -0.18049668462221077347 0.026326850033131822537 0.10292260537887346072 -0.16269049988867415046 0.18616041895117810268 -0.002688477166919818126 -0.016601172866023153341 0.042426984324230525292 0.013173951343470071546 0.13757759227440446992 0.087314449986628961398 0.078583338955498849288 -0.060105488832814239764 -0.13233213648616484748 0.10696993637310041325 -0.19695598072651024357 0.10778524306076725514 0.085616521534751868772 -0.17675950967400691494 0.086956307951996839045 0.12091151579784439885 -0.14303232885635569493 0.13251698322204111258 0.0085660400006722925426 0.14951047336472308991 -0.11798858449814149385 0.048064965666378148268 0.03659755238360470897 0.16875101596082495159 -0.16256396578806567299 -0.017559072980252724699 0.079092363440698768007 0.10223862616583043184 -0.16124280993495235248 0.071310776217069632432 -0.06614036498960412791 0.11363972068085363698 -0.015924402864745633435 -0.12902950406865668076 0.018059346864754351886 -0.064545142178503100983 -0.13929057058202540254 0.13667005685623323519 -0.17920227714819655929 0.046193289280364660532 0.1213318959480642889 0.10844346645356311987 0.11021854949267491375 -0.17102571271746433434 -0.18030086225092678553 0.17676892953681441756 0.12262257054786999955 -0.14336375308854260036 -0.10231779571145806218 -0.16083524562022466498 0.056873249264524562696 0.11026989077700832809 -0.17548605959403323906 0.18065711528794789476 0.12315255199117740303 0.039612729991939807372 0.090247751948174331771 0.11857016902175961104 -0.12183192908748496919 -0.040170233318170711634 0.056843979566654045943 0.0081894454077000213704 0.11187426236847639038 -0.14856528642161992426 -0.10702764120283859983 -0.11673355042927828495 -0.14281815692584873267 0.063281705455849129871 0.13034359885685500857 0.1723925974865133659 -0.14857732242740576134 -0.19699858472018844102 -0.047901330691062220246 -0.09409788156590297159 0.15631894855794917221 -0.061647721287436951787 -0.0016711910965501550631 -0.14284396373648541867 0.15704966270168868592 -0.014933342786727754614 0.10976511523923161706 0.12796420085670101585 0.11625897211743276005 0.13979439521825917647 -0.089903862190042344027 0.045101238150349574896 0.083673926578034782398 -0.081503425022031936176 -0.041900772323504045791 -0.12439519611281371625 0.087570340263330700981 -0.030480298820299019102 -0.19198916184320521938 0.15102179568298282342 0.080102714930250215608 -0.058801430615679169123 -0.099403009688532550925 0.15877775857532624992 0.052747049104760412863 -0.037466690492738846663 -0.18986611665192765219 0.17370129154854457854 0.096573975579796828006 0.075524147856251416799 -0.07654291623779096998 0.1559564921195475129 0.098722195178123056669 -0.14163443399211650409 -0.18406609351857586288 -0.026823953386673402705 -0.11326347176572623687 -0.061063908454221230149 -0.058424606933978079359 0.024619727419730081525 -0.078207970204770438372 -0.096630327200850629765 -0.043462037177289636336 -0.089030325060282439198 0.13652785451073551348 0.084709833852962115874;-0.093934564123484096121 -0.048873858638698260137 0.11054009761421026981 0.13032877072346427116 -0.17965383089097916591 0.18387766900235327783 -0.10345616254343388551 0.16514713029503236275 0.18752689541880118718 0.14521010195827921407 -0.16837345849399396047 0.13954236981439849252 0.028951247700927260076 0.0052936300295997806495 0.14103688794302263187 -0.01767096123724645057 0.10981420526327702325 0.061741484240770382053 -0.093811563702111272489 -0.16487498658838928289 -0.16010100050253081583 0.18594645304082693671 0.094742260588226184792 0.18443840329657207322 -0.13219206852711051781 -0.19182244080440144507 0.047720873139534082663 -0.11167164017139848131 0.10527240542158421144 -0.093942491131395605697 0.0043297212753214903494 -0.067885938484189556341 0.17686841743054890208 0.083921080779502582603 -0.10368219860227073648 0.12109329633587696817 -0.086241113995064941355 0.012940186059162146759 0.14702175111738352564 -0.13208893773154101181 -0.069345527595415040745 0.10233045785488587009 0.041254563037817257309 0.0027620429873267487129 -0.0161623845064759325 -0.16581133764426475574 0.12929839503629073083 -0.055675664632280616462 0.067160487173855351606 0.18778357702889050818 -0.022880948101429654518 -0.14008518963295318871 0.060939994601457637968 0.044730784823472591327 -0.054377018199160520595 0.13987335290148933398 -0.14047500991244710189 0.053537206688405031274 0.19198138810329587467 0.10884906600422732115 0.044073002381449892517 -0.11427223568111441465 -0.0067880308058789863915 -0.0034339132704883411698 -0.01796592055432389215 0.13951476892056899337 0.039452429720950796255 -0.16047917841662021066 0.16527694917489130222 -0.043619534507402406287 0.0080369306611765868598 -0.15444592445089730393 0.00054032270058075604086 0.053105440432202957735 0.026454831338829760956 0.01128882302160006193 0.057283042067171503764 -0.076153606202321477703 -0.19322938308863288337 -0.019174061840883188657 -0.14729045369718293812 0.094182934640035825824 0.14823929456509979397 0.11323445446950372584 0.02749400724361734244 0.1534224203997073821 -0.15117157149814094974 0.06832775137093798079 -0.075234361049867207183 -0.17897318253776828278 -0.11802962683918997999 -0.10182751965254289994 -0.11930393438106946802 -0.15212937398755521645 -0.072562789018272483288 -0.03984115107332375505 -0.12394612802490151404 -0.087132716458465792053 0.11511456666694598605 -0.050862281096530459479 -0.12142248837172424369 0.095423204792274299302 -0.18878799376951443945 -0.033359974097784676761 0.033532365518823228911 -0.12780466233183693237 -0.12391902347498037762 0.18959667831045676212 0.12760014723293916505 -0.094841024082606709134 0.030254305308796872187 -0.13082971558285630409 0.1289732557939903268 0.12924393632911249097 0.12114528907010069236 0.079721760886581741201 0.16947210935261347586 -0.15289248083395282074 -0.17524332900522496259 0.11723909692340780953 -0.1718094279532133839 -0.021129932486454235108 0.039273543766549109946 -0.054800620713759115588 -0.089113564558090926915 -0.18377708099277498266 0.061363979973621606001 -0.047702432602968899977 0.030600173526491393494 -0.064212826233786240993 0.17170395107867233997 -0.010093270731084074895 0.070948447828227179102 -0.017131989952524909887 0.07244071523896060405 0.034912436995223304625 -0.047316725190425498737 -0.07050473084137981461 -0.1512964974051458078 0.13413920078565955141 -0.098556375007158275592 -0.16094003269980874937 0.019605161720467424724 0.15976671526494912179 0.11425525027713862025 0.18455813378114768741 0.079010633169861038683 -0.13799663024604780226 0.089267265327660744179 0.10274805201247516617;-0.0055201222749243572877 0.082577130394745928976 0.025737747864534150921 -0.045781097731333049439 0.083343602261701399403 0.15065552437828261256 -0.19730348866391514417 -0.067536071634247546447 0.0958772744043258629 0.15863963952590018347 -0.005304724720459927205 0.090898678514633582393 -0.0090354690412137294436 -0.012681495213853460208 -0.0032576790881088360692 0.17449829100695549156 0.0064211961978601315992 -0.15089800024974625581 -0.1676238130758360978 0.084400294753590995867 0.04049764371338903518 -0.13351868323782686843 0.13799487843472221793 0.084852370844933508454 -0.018573012261675719142 0.079285330624564984148 -0.10916084445418663962 -0.0065441434641609558601 0.019570915118029393043 -0.13492115174444313519 -0.077226870811486922341 -0.025538133218432793742 0.12684807684060600552 -0.027521698280577541057 0.079484828470429369496 -0.039078583254472040731 -0.19839967590171966871 -0.11370291568943494132 0.11219719864016317046 0.0060720501889591502534 0.18641578377230294539 0.054337084019896772502 0.18838057740094818482 0.12635660907035706213 -0.1588244777846275213 -0.18429790357519099109 0.12341313528433624225 0.02200258607842903516 0.052064046407012218309 0.023791015249474117138 -0.14738530194539919971 0.065910388048821558216 -0.084847569994807497951 0.003352769197799104154 0.071865625527662721495 -0.00099808142234025874068 0.19303678437119842215 -0.12857290505787821733 -0.022987767187870860458 -0.052162838107203214622 0.065046402314612214446 0.19052371064851583715 -0.10940339434857768164 -0.12478892298959100293 -0.034653007763200190106 -0.090415721058046613634 -0.046422819641989451767 0.016044913909071339964 -0.021914079119568913301 -0.035337542259743413842 -0.030337630712134997651 -0.16919306525255697893 0.052499236356834365347 0.057687963994139147828 -0.11291621885889532861 0.062491410998474494765 0.13050672177956437747 -0.1957155646079015987 -0.18257204445522301484 -0.063851780419571596559 0.1063438103910924748 0.063439649371121259458 0.046157269806643287657 -0.027934837840668327175 0.0090433605561061006922 0.038407406872473209836 0.10501168394565002506 -0.064714349380319780014 -0.018017364764313276854 -0.014191046652602451808 0.19502871675006189234 -0.11102565916988291206 0.10289482915192126045 0.11256751417023727613 0.090180385623160594366 0.16440670501061616093 -0.093567989495401279743 0.060822579836045331803 -0.1402342850440748967 0.18321368693321288257 -0.090489803162127388503 -0.087470657112333094485 0.1350576828180896638 -0.18121164962550059818 0.0392497804447601642 -0.14412609829354083857 0.097946033830445117241 0.10897172196372731379 -0.19593746574414730444 0.10398168771631562113 0.035816760941877238966 0.19558366010494387943 0.058596743814255329574 0.15588073712243222246 0.023045114569378008507 0.061725671405703529115 -0.12138925590111275532 -0.055649133379566735613 -0.17858222801988668516 0.072035889758195331689 0.10510669267970315643 -0.046318873641011781839 -0.0083190589633178359252 0.0094268401408920139001 0.1967000267482296727 0.056438151289939411659 -0.17524609104437849361 -0.18845997603892797323 0.074899354914270993566 -0.023814210862161764443 0.19016864682823705901 0.1193956891603616538 -0.10991715355746509153 -0.18821268578234259805 0.074245767187551131583 0.041856564432261184061 0.14825767648219326245 0.18491039505068276871 0.015990258323561577086 0.12093308995976292941 0.13913529240700364675 0.10332338163196122527 0.10223079540799440146 0.19832594613375834069 -0.060442748257412956536 0.19276147538311147467 0.082481138872728315681 -0.037976492729860700237 -0.01305559501764916655 -0.095331000311288591198;-0.16874559185765608538 0.1714209192239720958 0.1776173893055414954 0.062745624127884438992 -0.1824829346776682959 0.17337896575206579453 0.015057467250295050037 -0.046407925769086019741 -0.13691071081942138288 0.13531334873506917216 0.11235635610761769698 -0.092124470882906914215 -0.12670253874399686755 0.14808004847402508886 -0.13317062544558469495 0.090686442334223738015 0.09662608910707923271 0.12162501983967066721 0.12904113888522275588 0.04731943370526808107 0.029337890888732801042 0.17080034101789487444 0.12852949216622078232 0.10917325312236138279 -0.154569651332291641 0.18552983883188056691 0.082610217720921974571 0.028681663560731388007 -0.1244624191338754432 0.0062877492715842668233 -0.061746082567336914304 0.12799377408889653363 0.11990504823950774715 -0.056307400229800110003 -0.0083554822087804608149 0.023331169449828402518 0.031124941164827075318 0.0073428445832563783713 -0.14082444622987297378 -0.12385716376571916097 -0.10364984231207492738 0.06008428916516557472 -0.062288394272446097333 -0.19179075446421434137 -0.13813810141513205298 0.02312392287547635622 0.0027838921797124680478 -0.18751619772827932131 0.15533571774338683635 0.12712262857340761446 -0.017019101706484327657 -0.18618832019270042943 -0.12992333263803079735 0.10424743349040375973 0.10650784944447834468 -0.056497029669110042371 0.057160489733905632537 0.015831537296136108384 0.18071815942393462673 -0.13591690401265427157 0.079451594305389228179 -0.039595373791011155562 0.078598388284152304051 -0.056302122969602963476 -0.032083293275377601506 0.11067615102589138665 -0.050930630326078772663 -0.071240743507411968816 -0.15841512481616135122 0.014019777832818866581 0.11839612271194641102 0.15089126419703544069 0.04363758627464611739 0.012351293581484497006 -0.10125311718788859716 -0.18413853280703174065 -0.022533116537638425703 -0.069111443152352652897 0.16321951547893134848 0.087417383769960776974 0.017796009137563142954 0.15000488846106740937 0.041386580161591135507 0.043591720938206894587 -0.058992203572731501116 0.029207908982398504 -0.1599352475209586677 0.089775756414402121952 0.15630206828946802133 -0.13731497922180183058 -0.027946348413326830423 -0.068584239694300580537 0.17954083925094690977 0.096116079620496425173 -0.12913688216582047685 -0.082663315633522596593 -0.13019228618437245215 -0.018542425840322070141 -0.13113507122229306479 0.13308425977715113153 0.013755249524347753359 -0.045777746381683782906 0.074282021018207092244 0.17607435357812528665 -0.068775906792074625873 -0.00073225025250550754199 -0.01190370879156134494 -0.14101877373503193813 -0.19177631675226305963 -0.10226688849784651425 -0.1539733893111176477 0.085232363939414787501 0.17432568544151824663 -0.17124200276732656767 0.042962416925220382746 -0.16853595509922167373 0.032551694086299855224 0.057749530063924546519 -0.014844487464181488345 0.012599158661999371178 -0.013560989115171678474 0.13186398330359783149 0.15105533090275888308 0.15351416999084746551 -0.079534997426358056138 -0.025337675848941088041 0.16230417226240112516 0.12955104816046214555 -0.073792208729288807922 -0.065298230682744873299 -0.0025280115606281998268 -0.15168670296655714647 -0.14372364992325983857 -0.16987177038378262206 0.035620926908838092262 0.040795969369906127933 -0.10318848777729747179 0.10521577184303355923 0.19137507200383457873 0.10374562526294778264 0.070976971630570151461 -0.017322640194105065614 0.061473205832657057401 -0.16987066151249202717 0.016145738250248273249 -0.13920218755914548492 0.17919552523301052194 0.1804973083676590373 -0.13408878675305196948 0.081295677728004722695;-0.13872386809622178072 -0.1569007900654598997 -0.11496778396613885342 -0.11756592013542345454 -0.042561090518244200365 0.12666634094986689574 -0.12483595119507370774 -0.015204540717757000431 -0.075742305556011621515 -0.012651337740343973973 0.17406156287848881248 0.17361760503643364206 -0.064509213221827621521 0.16078130765738626873 -0.0021847026185121873852 -0.16133463430485700529 0.070756072282445750532 0.00052950364290617780039 -0.0087447501514834654474 -0.0084426668350279961139 -0.023964481962382544467 -0.032283481353952626913 0.092095549101858506513 0.066075192412734892744 -0.08337914202413578002 -0.088840647621134555267 0.1758927232943751362 0.072768515827780377858 -0.012569385885851080617 0.12795800613411084656 0.053343244700151795645 0.13623098053191987078 -0.097730457280729085556 0.1611037783030739301 -0.019355399837031325022 0.0087808414526460033117 0.17089335248782314136 0.061109899792214220082 -0.021723197040825925619 -0.10557156229633454791 0.12191836808896407141 -0.009910859774977303846 0.066129760263207895687 -0.1554712226356957383 0.059689221938975543791 0.040434889005066455836 0.068072076740824730146 0.17149711442955101193 0.024927682971426567277 -0.055411712566381568501 0.090458224162670200497 -0.10761627661548522905 0.14719105221276088113 0.09896368639683691959 0.16206544051051963162 0.084407207531354125352 0.024016121806647337117 0.16149128603652204705 0.094441224882420460318 -0.13249933038241376582 0.17937081987966652097 0.093008373173292677172 -0.13470408125155244883 0.15940312790972852031 -0.081617704003962926462 0.033300838960036334424 0.14942863985521723236 -0.11900858159907287681 0.0368860408021034758 -0.12030082359869095909 0.1266505072503485152 0.012947983645877216008 0.11118895573026625623 0.057276437110326226809 0.18242811628270763635 0.14603699257502997244 -0.021267032332305549347 -0.12262816797086233123 -0.043607652877834683636 -0.084577918247862177159 -0.14457876151840126644 -0.029739058540616227638 0.17203474915125296918 0.016324449175081780228 0.014760165920731703124 -0.035246372457633061426 -0.038193147005679835282 -0.14468029121327655173 -0.11540267816888261088 0.16182979577623177181 0.094983542380399521576 0.16678961246688500664 -0.11002499101938256754 -0.11064329924477149525 -0.063036180612113926203 -0.17683457494360543816 -0.15210300433766113515 0.15504989343734310037 -0.13161115416721083649 0.010880366275673418811 -0.01190266170296719328 -0.14848633677723491187 0.0017254203515616845736 -0.11562299383029754629 0.032759307372560865501 -0.093248482363413653928 0.078667826212961894372 0.12121986351924202152 0.12637850136260608824 0.12393384297379489434 0.15600056206917151114 0.1745903585456211049 0.080599730491299925728 -0.12443606151916082603 0.18116728088433320387 0.016102020452151317997 -0.14919677708221312784 -0.12747750658119244571 -0.0014809771591827128757 -0.18227970406077012577 0.067046477401578832844 -0.1081735918138799768 0.073134555592818353831 0.17167644066564149985 -0.1490203704102266713 0.15274187494102761664 -0.047187383833362912811 0.16571434405320570327 -0.034974509389287727901 -0.16334993458423863189 0.12992234065385993569 -0.002845906442196887657 -0.013154841041402855553 -0.16970186972036749307 0.11215039277969331144 -0.017355047684801734598 -0.10327352131782517597 0.063045934796580951898 0.120944304129070479 0.041467385113359872539 0.080183947478398506781 0.048813114444401194125 0.039190551080795013594 0.10556916034044337704 0.040388850324716465967 0.16619947853921623881 -0.087792715569325954772 0.17684500903845420949 0.082651553717139558675 0.13609832569581198358;-1.5430583138403663443e-05 -0.16855090430908684085 0.07436637089415559787 0.13070006317851801114 0.031919688226264515685 0.17109887966197984133 0.14529794603233686656 0.12999567411864240696 -0.010882736988606346584 -0.077707366062382599026 0.067556304948901080287 0.09250535641360983774 0.13606040944464334319 -0.14998200463036567842 0.04918640350835578462 -0.059583850236680925561 0.16415982560158906556 0.14090141000936379223 -0.029565426584355257444 0.055393770956245466652 -0.10516012519574767514 0.096416675332237189444 -0.011889046800104918419 0.059581823644836121034 0.076046483878980761228 0.1305307893778494821 -0.10278617094832198653 0.18578893477623750763 -0.1758439726440599038 0.10016192944758112171 -0.1303451323496483405 -0.011057811890554377493 0.13334644295971118111 0.03158488232609016344 -0.13945963040555270362 0.15507358400011259092 0.15948276858418408697 0.1472829390940620653 0.037435642155884976678 -0.044037382329444554885 0.17396792087051635156 0.0032210818948166250811 0.18666687460188421954 -0.065467269101649558372 -0.12296548732546094818 -0.051052851501680339419 0.042260206109826808918 0.010665213481849331045 -0.055058546205791432382 -0.11333948582884430245 0.021565204324202610214 0.12734386157293414721 0.11828480459998344521 -0.056544439796033463264 0.022930364955791038284 0.11491020696003935442 -0.0051496384330862289905 0.14292138496513639989 0.076186482553774081961 -0.072189437663930627886 -0.046138316907115096976 -0.051822696092933183409 -0.12335768087780453472 -0.11895478591595635975 0.072656890663634024485 -0.046617175814752588592 -0.030655786616808462786 -0.059600366479176623835 -0.038096449436280155343 0.14825216009764569103 -0.095997072636305275095 -0.18395580686907544998 0.18569588844098805502 0.12276958387946647344 0.12444463582302242588 -0.16316427913335240785 0.022277902646949725163 0.14873680336607764119 -0.16492820407505948133 0.083866244570337256103 -0.16189447058179257111 0.078794950872580218904 -0.14583599461055299362 -0.042527651730268262176 0.055703530284020780217 0.062910282330767799963 0.11003182738866582047 -0.04990555198737330056 0.18797250177747387712 -0.099009733790250617491 0.17660679046686864058 0.011019307172204399065 -0.14357367004027840607 -0.041666077483714335228 0.15093014585239628023 -0.034548792560384483652 -0.095571753954163271572 0.1077439708138904495 -0.16002080306458188463 0.11884423037600501394 0.14987435240788035684 0.061014770946791835327 -0.17642150810488774204 -0.092616515772313320887 0.047531150474169621412 0.1331827263396415939 0.15253812259486704273 0.093651866937375136124 0.18026317623753068675 -0.053466790204593758751 0.14211041942659041748 0.18162627593600527698 -0.046064088644928523342 -0.14674029828027049249 0.017780976862913560471 -0.0797574937218883534 -0.085709005208864763592 -0.060499156698221978612 0.051233288190927255001 -0.18034042389971308151 -0.077258406287999667472 0.16115339765912065073 0.1467267947681863971 0.052239298547769291714 0.029087782017409594126 0.046548574609215437325 -0.17429416054041058093 -0.17758531363310128826 0.061507132904887747149 0.10061671733461716172 0.05481149803705558099 0.023767023098869882736 -0.023839435229009917766 0.13331024499364210745 -0.14754410246700652709 0.097573743854550976096 -0.07719320019204073402 -0.024702649262378476719 0.032912742638060238365 0.091718086093101169887 -0.10214727431772309407 0.032188180582254290185 0.076546513754553818787 -0.17881802944264574284 0.15084457984852980839 0.14943507216374285473 -0.04643519229210057303 -0.037229255015096975046 0.050165528914235729685 -0.14509103161720704467;0.19915500011637768396 -0.18982889551552156737 -0.15402654603067753025 -0.080505688909352723925 0.1679933837386250739 -0.039980002846762091595 0.0015393089518215285778 0.093004028094113719294 0.014634480922669076616 0.055707678379326261431 -0.14180908582596027379 0.11303092409852498468 -0.12551873908949345848 0.0018117264831879712362 0.041893834062859985901 0.044898095986127276036 0.0053281396284299764252 -0.077878709450013003379 -0.026361862507960919649 -0.085998193516817089677 -0.085922980612591723371 0.10329533840731587591 -0.12680322982032762869 -0.07062874318775168303 0.12053635597513456812 -0.14425640139652218252 0.13450577368076122031 0.028748861689535772784 0.019885070458529826437 0.15966593996722960869 -0.078594884002291309777 -0.18224461377016587527 0.05690991411421911228 -0.089314673692896279222 0.13683086867928934138 0.16650409767398532956 -0.13422943337808690423 0.14301431661181518429 0.03278110628927220771 -0.082853729531060543723 0.12908306700898430908 -0.08814530989605186273 0.18023082814391971906 0.14129733406812003405 0.010241031988360215985 -0.10388787164386867334 0.093638828555811667864 0.036682001296265601131 0.1380129643253090177 0.10072471840233607199 0.010370159387521327848 -0.075569850097838869862 -0.078032403870940500457 0.062829969773357863261 0.01082427115985228408 0.09569670276122477226 0.064444766123714705697 -0.021675966278701490342 -0.00035489146200017376853 -0.14592790601610908241 0.051108931909213187184 -0.16079398067397904226 0.12052172839947102034 -0.016786245154464515816 -0.084059740261772417091 -0.15814605635519096705 0.12873519507339320489 -0.14432330568155940509 0.14390390695819360589 0.14612973339420648466 0.08766742768930284313 0.1615141658452616813 -0.038497506584000619478 0.079325880136310117363 -0.18204052947983262456 0.15868146887142356438 0.057025366087558981842 0.11267404296335799263 -0.1389047691376601168 -0.18843228151304380891 0.10778847346234643467 0.084097345181026933458 0.16442985980782115485 -0.18759651103310323594 0.1649595320455245484 -0.088097883603382318163 0.037999645536565845871 -0.11031884881878760429 0.12957589708745209656 0.19869627124377570171 -0.11289523375848965758 0.13431334489572727131 -0.053648565864593933394 -0.16348040045748077342 0.078211069129337479344 0.07465165979617550962 0.028317559538746161357 -0.028198904755231572056 0.083505783385390386364 -0.1262837203062719682 -0.061775873553745051792 -0.163281505695489354 -0.069715190960125614228 -0.082194931481599869949 -0.076104036320411488914 -0.041331073455180437903 -0.084804886212186528227 -0.085930629652041734534 -0.10168765993479526866 -0.062959362775338673091 -0.043039708495403061761 0.13437995309807973521 -0.066681694279359313149 0.0071734578627372178744 0.036365242307288984935 -0.18363918563240552717 -0.046911223672902201132 -0.15038359053052349767 -0.16065263274118846137 -0.16004946067165420898 0.14239393646787024128 -0.12579110446517668964 0.15419017673457999229 -0.0040985262557071662839 -0.10297043840836511697 -0.026110251210279402517 -0.079838830160856424922 0.046916124164140038388 -0.093949105127033569196 0.058115707120022994103 0.14748975761446439514 -0.081010887043750062775 -0.18901403119943149811 -0.02384835905444425766 -0.18177848170604798961 0.16326581321623825915 0.12379061796103796311 0.12862333146118384852 -0.088095715150839970509 -0.1695335688266193519 -0.099298677468618812281 -0.13262415022988369162 -0.12808429841805366034 0.11983740313939197919 0.012250496011219328893 -0.025176297802195744119 0.076768217799806873214 0.093876142898685482896 -0.15719682280202718072 -0.031959047563378965851;0.1360242152975306984 -0.13332597847080593367 0.10510243696360770105 0.1031029658980327085 0.131311117967559704 -0.095109823910107596512 0.13205790154467061948 0.056725557827767197905 0.060050512609001432951 0.099735573168668087418 -0.18103210237801053983 0.074417421796234714537 0.078101127436656980763 -0.12011230571906857112 -0.032204559118227622794 -0.02444016839545020553 0.13497003608597737956 0.13162656116423937513 0.12542335752084329825 0.10933363128615654347 -0.075116633136464425191 -0.16129665273150806115 -0.014235111730355909376 -0.052244003485036216716 -0.14942484370274403127 0.091322044838812926892 0.013436694323505620624 -0.035930804682234460112 -0.09503783817004066159 -0.17103788658237759068 0.18261020269397199023 -0.0091396448143052089197 0.094676884252372944806 -0.1287617140756651124 -0.025849804546662625421 0.076562175048415406775 -0.10394622419827304061 -0.060249372691926698919 -0.029370459952527901842 -0.11491909614296771935 0.12112471013097229899 -0.092158018527108129248 0.088797596467670283915 0.013064818709514904038 0.092541123031238126107 -0.16359765222859271039 0.0014941777185323353722 -0.017175523172977744807 0.1805390881004371173 -0.17639268794883680713 -0.011963777483509864183 -0.093843088410627356621 0.17437398083141433802 0.0069626179895998134908 0.02674717826112055219 0.14326130128202230196 -0.11210602064052029025 -0.080680497476929763367 -0.16856249072602189076 -0.047205208071116298851 -0.18139251618095794671 0.1383292161114574037 0.084451138700889660793 -0.16891960617055107319 -0.09932561963624059187 0.16556050497751398365 -0.11372130907389767229 -0.17468377862058567795 -0.06496867798464389665 0.17318264469533020677 -0.080566392261443450784 -0.18601600814838900599 0.11705531939132196584 -0.053004443706431945971 0.089912850857946022276 -0.013388260103031074041 -0.12810056937595487581 0.015185425126231100884 0.090758259922784481621 -0.10782386068554107583 0.11444613937185933727 0.18841653852679843273 -0.13536884119365663603 0.1582100854054460104 0.13337307053115587951 -0.06228926272925347507 0.13078127896005159458 0.12165799188578758916 -0.1449688350648878632 -0.059649788889484876842 0.12705101482179662065 0.036241645676609035576 -0.13207488148042062504 0.099843874684652389462 0.19215691109906934964 0.14071887010199748969 -0.026483732826441650637 -0.0035869522658187541833 0.091602488029939047043 0.018516150752415593689 -0.1295883629885995203 0.12509114480698368954 0.16188697970034129914 0.031678743776315208824 -0.099742940937926821698 0.071033035342859013328 -0.045600102384595254945 0.024530170391214793646 -0.12429334218091481201 0.19249749195264234669 0.16963355855934852956 -0.1307541472668276028 0.17273596180992431548 0.056259780225787148211 0.17490104231453412753 -0.19009855235047917743 0.1761194582623799576 0.1109507041110618375 0.15323357628354622451 0.04977781651421404191 0.023982436886853777253 -0.078794517332105892815 0.058391318030827366048 0.084548311654013677541 -0.018704626457412717316 -0.045241090637008415931 -0.15618050654983284264 -0.042248735125845870986 -0.0051324369628078965466 0.072828012541539019487 0.1077716867161608999 -0.11112908665301479694 -0.143996786807385313 0.12200227706411471973 -0.076095223420339669351 0.031500546724456526815 0.17661720473409284193 -0.13284218552957835491 -0.00038380198443334795659 0.030106997874178125646 0.0068917899729747256893 -0.081967131774970808378 0.040647917161027884159 0.17080570764411287521 0.056076615478737011633 0.13085406662922091647 -0.043552240978378793657 0.13393120849453266086 0.037828495540844171707 -0.096564248966156687737;-0.026989663408301233644 -0.063513950220736595242 0.16287401825911981823 0.1221893577910796308 -0.077270709742602375347 0.14122226514266347785 0.038078669279436837269 -0.1078055856196683121 -0.1659536630805106272 0.061507163161952115027 0.061958123599369675782 0.16934687779269724794 -0.0064322810270136289434 0.19308967072030072676 -0.13859945360686948268 0.003432680230031459178 -0.04735873374213949577 0.035951900958838073352 -0.17391668532547002735 -0.11274130070183441266 -0.09541759013779825549 0.083173039077189522827 -0.158901508124282137 0.1598812909901432544 0.13147754929847815797 0.18415553591405875444 -0.17967752936742273362 -0.032484178582025048654 0.06960112716681894629 0.05331069974819467594 -0.028551001309525494976 0.1771556591524184876 0.075842273927457917737 0.14986150798354727631 0.10246305581259494699 -0.08639616502537671161 0.1243895249284839577 0.11451853436967514288 0.11180246815383888814 0.026318155806209195952 0.033948038015141838997 -0.0081689473108936157264 0.03934052090466633872 -0.080640245489466647055 -0.092996280273982351305 0.0039507996234830642865 -0.031948295102850771121 -0.163202317316883172 0.094638017499729581994 -0.02898010390671772879 -0.13826703050563479702 0.036531058267885600788 -0.0086229869528708751047 -0.15998957487078446782 -0.09692290166608055757 0.013206041358269322156 0.12493178038024489729 -0.015178554674581824779 -0.054957417790527450518 -0.1917869035423765689 0.05800844961860908422 0.018340791670822868126 -0.05410932253891809901 -0.063227842238114770335 0.05403513791514413106 0.15228985644716547254 0.15243573981198968448 -0.1360843689039528126 0.084795594086348624607 0.10621497030048068777 0.011479884509100658427 0.076710219011903946207 0.039526323589060365082 0.0083865302248113220152 0.04177328985196745309 -0.16428370113992418755 -0.097380217572758859257 0.15491553165298677097 0.055805406094037342257 0.16734597473016021851 -0.071671924818971124993 -0.14136785237163507212 -0.043839904362992572484 -0.10455091386515208418 -0.039952504430707018457 -0.13902252782659979546 0.075506455733406876996 0.149200459611310704 -0.17936638140643890171 -0.01332565920708277292 0.16170135994481102393 -0.15436054626365219855 -0.19301987593958469525 0.0099363763531035622506 0.14037784792515747845 -0.12888688743661100289 -0.17256604823986768094 0.086022142032996809502 -0.19008854286470888706 -0.11039488255235234415 -0.15451365862159063824 0.15911861059596366097 -0.10168938075391324716 0.022374827161641026863 -0.10488217519630813057 0.19230311298108818119 -0.15294989458486926703 -0.030285133266507700128 0.032849832460300244785 0.16334900257528536804 -0.05057098582927091468 -0.15157408969090957473 0.074629531492513501156 -0.088029885281527817109 0.051204602093831867726 -0.15188237976960930475 0.12756425909719809608 -0.02526146938346136156 0.049629434235416887422 -0.12228744134705137048 0.035729867137091003704 -0.17524703280586884091 0.0069399855608381685185 0.050168747067757757385 0.070519557343745681299 -0.021574605997728389661 0.17920928555333084931 0.18659989537955293248 -0.18641089528281520882 -0.077326368136281131704 0.030658373929937511593 -0.13861610393555132137 -0.16960219023587902454 0.072835183218589921728 0.11834274785540871422 0.13155952938369844252 0.050961044120699204585 -0.13498069161551656814 0.1829532133631376345 0.10548124665932682997 -0.1329098888465727879 0.059727278985342281692 0.023470208723651037747 -0.17790107516276570943 0.10372642979274671049 -0.034032794670101271239 -0.052122388352324647287 0.021575660151880872439 0.06550664953093815468 -0.1147240119858236318;-0.043199066626432525151 -0.13632406133119592817 0.13699361416873695463 0.097116617646303762812 0.042450320572973404554 -0.023107583574457933595 0.16543344338465446053 0.12641595493575802367 0.044276087798732328971 0.18560373169052565845 -0.14511813909791751454 -0.16043390559973050302 0.046878715710552035234 0.011203255106588380988 0.014365656718512210752 0.11635821393757334041 -0.021632922431271565944 -0.15618012397273964287 -0.11724215712097137143 -0.16139788594776133257 -0.09025413059296689966 -0.017282045245743875989 -0.027481747965135340517 -0.10720575620573853659 0.1773258889963510998 0.18602065414488283546 -0.073863430166689114653 0.14817457014984511399 0.010767343204830892231 -0.035582879039694009782 -0.13459230880522793372 -0.12001074449170882896 -0.15601477764207344334 0.18547693524585437408 0.13479830357940672525 -0.13460849812270478387 -0.12428199569745761177 -0.034328322818380462012 0.046619434199494907967 0.093909442282720731465 -0.056308460713389144048 -0.17430786842461434838 0.10306902629639334845 0.15350349349913838815 -0.12279890898577271174 0.03757417341849925152 -0.15050482922855340506 -0.0064174819035742597384 0.031780845338174677772 -0.16136496412326581384 0.11035938474427335609 -0.16799893639599480788 -0.088904399230835179369 0.012474043235914755376 -0.037810270287470679196 0.17751579081207066735 -0.1434199840769443679 -0.069365805718452355766 0.1236468580018719593 -0.18567309280957322581 -0.085485874039192860652 -0.17319831768094071101 -0.029578266048116797632 -0.079333765839483386118 -0.015608255435429813432 -0.046852248050714244421 0.16267926224125972556 0.15282512481455734488 -0.1308841543780083494 0.016081716530642484186 0.069832727277271411381 -0.084809175046790183372 -0.054284281002572591646 -0.022304045140678740999 -0.046245594909675169504 0.073831006947775085214 0.067748886166133615028 0.11327715267080540329 -0.035575502070371148311 0.0070675026229344468931 0.056063725231319340436 -0.19244193644837234713 -0.03241613511107024892 -0.083143446355950431648 -0.1315939998440477654 -0.12776473190691259307 -0.034193834605620539169 -0.17667460035563181675 -0.07323794520912178807 0.069306731306442936891 -0.09589921187483660403 0.1472774612990211951 0.19367244100215055824 -0.0078242271000732270536 -0.11228328689678523933 -0.031063774266218341369 0.13756823982944818563 -0.034893574078342447231 0.17239883560149615871 -0.035799414270107125791 -0.050464178177066193465 0.1806492520330090501 -0.087733080803635885014 0.091412671457791291885 0.10590665120042250247 -0.043643201516307371379 -0.12327891464136109256 -0.14982606811671222991 0.013201666006100898354 0.0083516500022222210642 -0.0017937258459398159466 -0.14737261247122718233 0.11278095419888883866 0.064987767155059134039 -0.02634906770114305713 0.084919309328613371002 0.14004026423616910968 0.16251818916559931938 0.018906397511759823887 -0.19413048954156769677 0.018182039212565198616 0.15978103690892969668 0.12329519121989568342 -0.12658798927180159311 -0.18157162236761711926 0.18096836648857844709 -0.080045256384659174698 0.087375338721701167888 0.18405246976189787445 -0.10377143486800900762 0.054127526493370776983 0.16618521240249184423 -0.027571436987180369949 -0.08746447918678811051 -0.076933772594284813295 -0.085273897996585731884 0.15198009896418893105 0.060940788665935823054 0.19289393022809245282 0.15192248364144533834 -0.0065260477451544460573 -0.14561776811785670516 0.027991341284502178205 0.07968207422216376512 -0.090641081214925298126 -0.10329165156607822418 -0.00060746645963838071577 0.067210722737055514364 -0.099292303943376167275 0.051868839988436631072;-0.091663294912161380479 -0.18541613551931510062 0.17367985153724657676 -0.13618435282078977799 -0.12335896288936344656 0.11760847237786443975 0.083675495535316612994 -0.13217346548327468803 -0.10216347645985933423 0.11965028231698465744 -0.030314370605553975224 0.11547808867066394756 0.025382738775895249267 -0.13449860883919689813 0.15383925582376886676 0.043796319746079316604 -0.1525249701906087052 0.17731219114901722311 0.083646216406601317517 -0.11647082291846769242 0.0054432646015437052139 0.051875978990612171826 -0.092686352332810167942 -0.16693316685203915539 0.10211923273150115554 -0.099112992774940608665 0.03636452349325134531 -0.044578472794777376786 -0.014627023394958839353 -0.022141627843442677342 -0.0061154119651507148417 -0.13085562928563962415 -0.18980020105356062987 -0.1285626300923936316 -0.12853686410439282839 -0.031655611128327924841 -0.046955636814413469204 0.025385445126556886036 -0.14528446535426123298 -0.012769424329182934089 -0.039139388429461657859 -0.15336539147571753849 -0.032583709738582079807 0.067620525425041946854 -0.073561882924866345279 -0.023674395571636724922 0.013620702861107381737 0.16152858028968589132 -0.10764571289591388925 0.11995680138579886687 -0.050498498911682856982 -0.079800975694169024033 0.048189442375348792713 -0.065972985918945778461 -0.10689457530622088755 -0.13182223751192478911 0.15307246535070809235 -0.13084280692130167978 -0.1294049183680196502 0.16559791368696044622 0.043139905587542347332 -0.062513042838783144939 0.086231777086076363825 -0.13011947453446187639 -0.15025513392329026274 -0.09155814871198285354 -0.15111772381046084668 0.12411128967746497265 0.12018877170490491202 -0.030518555697996413434 -0.12485735929521848964 -0.034114239975740659472 0.08252918308895544619 -0.030271433891473450983 -0.094024779655477230822 -0.16088281869723541906 0.0237583177850698192 0.16446455808228749307 0.043660652132069155407 -0.10712134960591658539 0.10012158052511485606 -0.17242032400158902039 -0.027253563946430848369 -0.14567320635057093292 0.12949566030315451393 0.0012296041953994542393 -0.0056133417493395669495 0.18909377910433955439 0.1007499549192378413 0.013476457512408076753 0.18108360502777368084 -0.049069134267504199709 -0.12620751340894795223 0.16094959452111076703 -0.16409448393616005157 0.15119884643788622514 -0.11388605141917551578 -0.17189675887990607528 -0.12418097647764633762 -0.086863449622979316267 0.08324062522903007133 0.019167850306161186846 -0.14781445330035089536 -0.16372460909193242706 -0.011965650514282543185 0.016528561319241793365 -0.16113095763182777587 -0.14050106236384249381 -0.12183449897937811968 0.031498133411058677755 -0.039651143368502506092 0.090335182654405266067 0.031647894315445068703 0.0057543219069710726393 -0.097151103121331169876 0.18546775171755772171 -0.054674751589752226821 -0.031078346598750437868 -0.18912746498799848371 0.045788284318122686456 -0.0018427567172815577986 0.017588526326555622981 0.088987908484404229514 -0.023044826084433433361 -0.097956938482513591926 -0.15746201406502274844 0.023660793896050025253 -0.18942819114601611163 0.11267935206463185194 0.093027014667787191748 -0.18487938415538154868 0.10969408785977552423 0.12675993831062934425 -0.11136658713562996859 -0.14447573162996760199 -0.076762218280918059765 0.13407312534858742414 0.15685531135492461474 -0.092100361416183121333 -0.078253972612743735726 0.10296938053242708777 0.17537990464791658463 0.058100002833937153257 0.024371735922876114344 -0.15438248812695506973 -0.03766727895236014062 0.13961868500935706305 0.18599267786285433868 -0.15386840701270015908 0.15653589230007486366;-0.062300388692372130062 0.010871358798347153379 -0.095826779943742210199 -0.02094271107523913017 -0.18883504280090268601 -0.046044325947114557451 -0.069294410831359051772 -0.075367013984296599149 -0.14669210486839481811 -0.13298159549452581718 0.14929794987481345703 -0.10194000726681173852 -0.17302852602946011684 -0.089570734053787820494 -0.10328141737380047704 -0.177883780338286418 0.1516528781452144703 0.020728482911434122082 0.16897276742210820544 0.05410810494109578872 -0.02362248346583118927 -0.12802689029453134806 0.040146202548462024684 -0.012737416026488007637 0.1443243410257860071 0.069867339062770927871 -0.18586252297882058238 -0.028727559759210069545 -0.091420787082896429188 -0.065701903666654709602 0.040647190510208229541 -0.12151604802839409414 -0.061165480407470759761 -0.12118546124692729238 -0.09486144913017309499 -0.14669539683729557189 -0.16887020803392183144 -0.019195999344862973296 -0.13139445584884942853 -0.14100742035637894856 -0.085472468601016551859 0.076922420492582493923 0.17032390741570846426 0.17069352440944168814 0.033657903150580044394 0.1494224255015196845 0.085114579134422926887 0.18636915549485791321 0.0029497616269586182311 -0.087393906356996550744 0.13219044645555580453 0.130011232278141875 -0.0069621351015846750718 0.11351540771627988136 0.075932525333497383202 -0.065461888840517942767 0.10490330175115063216 -0.12912897048135044131 -0.036864106292959296363 -0.089840415316908353582 -0.032821074694001979577 0.12395818654973030093 0.16471938386951995303 -0.18167751498784237563 -0.071321990109244517986 0.18164604947003712421 0.020528966819482331874 -0.15105177220010909678 0.087154095057774536026 -0.1742061372528211638 -0.016583997342514235351 0.12307101358594611795 -0.12531379402718578753 -0.13939977259211408511 -0.1580296661423339355 -0.11568946753042057274 0.081435021375231661511 -0.051460530647301556961 0.1828692225109220526 0.050058433523900311424 -0.13338462434429440573 0.079494549057140206916 -0.11958371240276345626 -0.18104383934437692782 0.16325790040820198357 0.077012100426346583038 0.041246201193990569833 0.056372383872817087569 -0.063605759527906979844 0.044959772977420146833 -0.17406563741022013092 0.057443091952511418641 0.067045424486591842506 -0.026222769352107436897 0.11290923362372262684 0.10123270394555707041 -0.050826064210189772496 0.14918715682897409902 -0.16928730028614527581 -0.089611872465529623932 -0.14652567463283311389 0.077305284341736182907 -0.16632822060679522402 0.11631104259812256874 0.084093896100136220073 0.15927072668421707324 -0.0079203068395912300942 -0.15147860703812404681 0.07988285291624129536 0.040887005979773669018 -0.02030677836353917548 -0.13210433459960818636 -0.10040796197845436311 0.10152323978158417361 -0.098860135316189368115 0.14961326381362943794 -0.17147208283275694463 -0.18132940048551385304 -0.11824117936963138287 0.0043414063649372383255 0.15870069365458228106 0.064641251801479060468 0.076045249751865398591 0.11690832841591279612 -0.038568439344093347065 0.080146999781773670124 -0.034610579955525910822 -0.045911995632613965268 0.089712451865502265691 0.13694420545619268026 0.092419200395634892864 0.0075212480763713505591 0.025118584202242055792 -0.063967952146198714392 0.13750327844494034113 0.094661692844320854956 -0.047286318310992184188 0.094984527890397088545 -0.025080738398062813604 0.17298352759850263438 -0.17968141060683281984 -0.035591757572183316261 -0.14110382234166674031 0.013741396066338841878 0.11958039796082299555 0.099218299890693389953 -0.042741294471669140365 -0.02586412563464659739 0.1186342588155510358 0.11883499972866443106];

% Layer 2
